0,0.028844713436865906,-0.037930537321169626,0.011148021422622521,-0.06564706096729778,0.019185863857906618,0.024712064980313496,0.025873129170436528,0.0005345481982388971,-0.024136868216892586,-0.01442677145429652
0,0.12748391698304443,0.12647166234372947,0.08948257374663235,0.11675558784489015,0.1804956544846458,0.149227329670691,0.12769536046838362,0.11523031976964464,0.16048689454810489,0.17305489981468952
0,0.13115107292916767,0.1924244338493966,0.08125422804316301,0.15237449207718232,0.21120582610495062,0.08801645146815854,0.1153894689683308,0.12764624707178623,0.13231341636569974,0.18233311523149454
0,-0.5036939787548327,-0.47572382324156015,-0.3454975772621778,-0.4235524920584404,-0.5770863595535937,-0.483474350554267,-0.423541198580726,-0.35281750346779656,-0.4330248525794463,-0.47721483067669035
0,0.04579674760095916,0.12197921134672784,0.08715185149236723,0.10025451050113186,0.06987070534733855,0.05441344212960725,0.05849115744665583,0.10097645498449323,0.08306861351574912,0.05847943194959093
0,-0.2568265860387833,-0.31911577483645276,-0.14122580848002947,-0.19965773035674692,-0.2266595042159182,-0.22227617957018933,-0.18401719608362607,-0.2106632726119591,-0.21735281967103484,-0.1991505955449332
0,0.033601858008288875,0.05874221299851994,0.06355559228432268,0.00039114004829972365,0.03548107564473329,0.08110639639613591,0.003006129047500609,-0.013276327585862757,-0.003736551753172418,0.07727957004842773
0,0.04818560538117525,0.050117779177381305,0.05179493860524837,0.04339572410516086,0.14200959723974085,0.03932187799679372,0.03698800288044437,-0.0215201142156427,0.07689044775877826,0.08808370605716405
0,0.10263923443923183,0.12593702062625345,0.08601797509273683,0.08640472988485268,0.1344136785640921,0.09831109770754629,0.05866053396529042,0.05204934139350849,0.03188686903232465,0.03504158614006497
0,0.06399310083143114,0.0003841376406232611,0.09015603170809441,0.022582949104002905,0.038794875902464575,0.0801810139104699,0.029247153829924034,0.025693709766852337,0.051348881813499794,0.07514163562314016
0,0.0039920240529954295,-0.040249617775646285,-0.045184410934901505,-0.020018324768546644,-0.008125924647068374,-0.036406971234415116,-0.0045863633038945514,-0.041448297296669746,-0.0015307852601890313,-0.05823956846369779
0,0.15837023523946175,0.15589859053472754,0.03555900331595726,0.053943929512001325,0.11774619449590099,0.10960476640992067,0.11284035271737998,0.09154967182618033,0.0826840152953485,0.11546230719875246
0,-0.042783656056318675,-0.03569596854717275,0.01654148800466702,-0.017425700341908,0.009803205994329814,0.013377671044633783,-0.0033795261806743994,-0.03129418206839116,-0.028990712882256586,-0.009185221222729094
0,0.00829813239595174,0.0034053580063598695,-0.06455761375096508,-0.006899661898080994,-0.07215694082281789,-0.0335490905389306,-0.007955496951085633,0.003914852038940322,-0.047569751582906425,-0.00176495165203637
0,-0.07193444930927928,-0.030990427567766685,-0.045792453915820985,-0.017287701663623832,0.0014234476339255039,-0.04325696580769899,0.0009747951305595863,-0.07275811294852612,-0.024737826798928907,-0.06027433100032543
0,-0.0019195350049626355,0.022167714568080827,-0.04022248405660937,0.01819881855239689,0.01221420917872503,-0.0322499454588227,-0.02598950244109874,0.02208446391544112,-0.06973595132077105,-0.0009687218457636475
0,0.07404082600644796,0.08559580690014677,0.08750435045262132,0.04960365391256967,0.11282100096176799,0.07410211654536407,0.06129208341596605,0.02602288147603973,0.056072846592667674,0.06310081304100391
0,-0.12937403890043261,-0.08119515974491291,-0.05038313584800083,-0.09534095113793463,-0.12364606636913625,-0.07706215128089229,-0.07929913105697646,-0.06599592960396795,-0.1004249918762659,-0.03205135571612936
0,-0.03902662692790485,-0.1118410086001389,-0.019544735492156164,-0.08210858847139538,-0.04314678985618144,-0.010742530296141804,-0.04048763475145931,-0.10360704123974646,-0.04609943668375302,-0.04458482289366042
0,0.04405579070556326,0.037802207571156966,0.07466901736338098,0.03594371055450713,0.022864906875765756,0.08011089628633991,0.06203113233280118,0.025039722863626934,0.030165761304465195,0.1038242476910428
0,-0.010040886602275216,-0.017817663296133147,0.04199290269083795,0.03139826580149408,-0.06300636161640621,0.013868075826007817,0.03675750978813684,0.04460487022242163,0.01986132923176153,-0.05145100563815684
0,0.0558996992262073,0.0711282189695529,0.018475505656677636,0.012271242254784997,0.10302937232317391,0.07115758491099469,0.07103550983166829,0.013128716807952337,0.07786080965165845,0.07615184377101106
0,0.05965917664864426,0.04751834705195237,0.08752995255705309,0.09561526678478223,0.10291529340877013,0.0892903525029194,0.07943855377453753,0.06445557546105492,0.0435141718744043,0.10509252210696986
0,0.11140091742744425,0.05317029489261494,0.021777662922670426,0.044373847625269774,0.10573808105452354,0.030825770872956404,0.072425624110673,0.10992300603368663,0.050930894777032415,0.052907990741477756
0,0.11805276066845753,0.18802940970157603,0.10092953346021788,0.0945407319811065,0.1210116035537122,0.16029926636776873,0.18254773536680385,0.13168564705517763,0.13500824164119912,0.11380378737997597
0,-0.06206289218581541,0.020102529758716688,-0.044501394390975724,-0.10004234422262683,-0.1330872894692938,-0.012229314267085617,-0.04811238438812881,-0.054301959391040794,-0.06923976880161582,-0.08780672602209046
0,0.13182708634044193,0.19460085787806283,0.10517556943289555,0.1372982435866111,0.09865773174743238,0.20943241812365668,0.16658908982633702,0.12564381020031204,0.0964695483290705,0.13970189464993768
0,0.18550576404337416,0.21999805531630592,0.14586202341108187,0.13797797870029083,0.11822480215837405,0.12536766079450734,0.14450767240155835,0.1150315329397401,0.09435333494904259,0.1379069030286843
0,0.02501425282667741,-0.006478681121718832,0.03352781731929957,0.017056857383164394,0.09013668606505186,0.03733015686688118,0.10527064557035093,0.05919560040821703,0.08624159014906166,0.07851450746036463
0,0.010041507496462317,-0.14566621096231613,-0.03532094370907505,-0.1279330560758983,-0.07884748201690218,-0.14361936730151523,-0.09215140104650447,-0.021718186473492735,-0.04152011453714024,-0.05788574104824593
0,-0.6020778176228726,-0.6964545391959968,-0.49345607208980463,-0.613362596128923,-0.6963997983428155,-0.6102147270701733,-0.5677957189105582,-0.5002161342701062,-0.5552283094650693,-0.6273893904321438
0,-0.048225927315368865,-0.046595221672264486,-0.07396608893029542,-0.11855211861707082,-0.04755800996528169,-0.10311307117977418,-0.039766374549661206,-0.0927407538910781,-0.07735877811388944,-0.09874210244647544
0,0.03130844170434948,-0.047959432889210965,-0.057093701635726885,-0.0174700783729524,0.0097409500367181,-0.03975841333669102,0.008364543373596921,0.026518144028122276,-0.02018558323113873,0.00413263278980889
0,-0.15175401832986624,-0.1046407860397561,-0.06799975411902595,-0.15602546563955985,-0.09955930185650927,-0.13270317395335401,-0.10321808337683158,-0.049091952931097214,-0.15057446113782477,-0.12934397779415707
0,-0.033197464396813064,-0.1169866623768764,-0.03869210435464006,-0.07337391065068583,-0.09025010157325418,-0.032900337705659644,-0.04184710200449621,-0.05604358953797988,-0.009909271022617582,-0.08075749037285983
0,-0.08445253428764946,-0.06464010856964562,-0.08945018219071542,-0.015303875012512218,-0.0891556276441961,-0.04849965108072425,-0.0667313379985552,-0.03320472921952115,-0.07836878310394933,-0.08110725777201219
0,-0.11472420149997638,-0.10693106308474053,-0.056842616183559645,-0.07992921864664296,-0.10278682768297201,-0.1328314999827237,-0.07365015962230438,-0.07314466008822143,-0.10580081685065161,-0.13117212293503963
0,-0.09660304011637323,-0.0869754046562306,-0.10167399464098797,-0.12837290704873341,-0.1576785429899678,-0.08349685311229199,-0.07712165117759956,-0.06765541509799958,-0.15286634444390984,-0.11310874630374936
0,-0.03391893680594365,-0.10252781264024512,-0.04190454952851501,-0.05384288441027808,-0.036532875099737745,-0.018647481554384032,-0.03767866869570327,-0.0628999943994158,-0.07418011330088929,-0.08369956250626766
0,-0.0871649852429347,-0.01682726575203377,-0.003667052727937746,-0.05651975814429021,-0.045414710009078825,-0.06061611165686478,-0.07713364729396671,-0.02832205778378323,-0.09341692304004187,-0.05514660436082198
0,-0.11833121517769535,-0.05898268036271241,-0.04594716943947398,-0.09154628795653731,-0.12102080530482742,-0.04144021962645363,-0.04476159255329826,-0.07272857646958267,-0.08910159911668802,-0.10977788441466978
0,-0.08388766124855226,-0.1244086668959044,-0.042962875676855715,-0.1338986753780221,-0.09309136285165613,-0.04638110853707255,-0.0599716864717785,-0.006093440384173443,-0.05488066279046371,-0.030672837023380348
0,-0.07988131332218695,-0.08888387788149059,-0.018077641838145763,-0.0642877304989427,-0.06484266268015437,-0.09557710902858749,-0.01832638894549234,-0.006615550305267313,-0.04407148107381625,-0.05777993520967581
0,-0.15459690291459538,-0.06730754925610372,-0.05431768466329527,-0.14181861622205905,-0.19608548297219408,-0.12931953969871576,-0.09221842925154379,-0.10784595221047513,-0.08378598955061026,-0.1436218645914809
0,-0.054657592051402096,-0.029138098316076916,-0.04539685684880829,-0.042868599814968746,-0.0016627075562609419,-0.008997139187699075,0.02876670521322169,-0.031838000235305315,-0.04478310666002383,-0.009990064161088828
0,-0.023693148308153722,-0.05957610770691186,-0.07361816535241798,-0.12939175996122732,-0.056264268812664685,-0.08101487321722961,-0.10000310022075863,-0.030795360866626084,-0.06784339374531503,-0.07661690729114883
0,0.08291407751511569,0.059069022402120586,0.04633560828158452,0.04857954187039394,0.07570113291144552,0.1014736798799138,0.0692660464214089,0.05417796897175165,0.04000710021899047,0.0678590186053441
0,-0.04087074969906338,-0.02173446515940662,-0.061918007300290054,-0.001098198714039241,-0.024378445864195977,-0.006947496068640463,-0.08119777199988919,-0.007930512849413453,-0.04320679632854653,-0.035825388819443436
0,-0.06532219574652981,-0.13623056947089895,-0.05482088516280784,-0.0665963510300851,-0.10405319662520864,-0.09527768586022241,-0.07538814130017962,-0.0503980230801898,-0.09949257060223866,-0.040527409480678615
0,-0.009349504319937304,-0.08470596337214871,-0.042393883949456514,-0.008313351621659316,0.009584164641016722,-0.06968917635468752,-0.03285103371704863,-0.042715192093541576,-0.09824928068763786,-0.04547996314376949
0,0.049964268099603644,0.021264546476332486,-0.02725029339137734,0.01228285336918085,0.06635138900359823,0.021802375168901652,0.01649227980799981,-0.019943464095402565,-0.03827372747266618,0.020667331699624304
0,-0.10563284580385723,-0.1131987684034065,-0.09014288503129872,-0.11305365789812802,-0.16297426374967822,-0.08091433002690403,-0.08753556777506996,-0.04767517585135655,-0.05547409598363397,-0.03923509493970544
0,0.015537678730228101,0.07039631998405477,0.020836039390488524,0.025482477765437297,0.03187207878090283,0.032937056334575616,0.060116022791105235,0.06960608331612861,0.03727887942777658,0.05645549369916505
0,-0.16514538258774047,-0.19888096001971226,-0.1213687511884698,-0.20011165502624803,-0.2503094618051046,-0.16752597064699812,-0.1552435913764491,-0.10977237658432326,-0.151872447219239,-0.19740589235452355
0,-0.08470503176588334,-0.07257661238019254,-0.02438888285354033,0.02276243392697276,-0.051934775011834286,-0.01794524743707981,-0.04753731220001287,-0.13849568377376387,-0.07788767878771938,-0.14512012779796543
0,-0.23443196743170724,-0.22319328306801606,-0.15806418382089144,-0.21470712451002882,-0.26336187493291285,-0.15365320724230325,-0.2554736507249386,-0.13973959530850183,-0.12498715174440606,-0.16561877515582835
0,-0.20582875338572293,-0.23148406396963084,-0.13476320127195993,-0.18279398471277622,-0.2705682853794639,-0.1843669740976399,-0.17871145052583787,-0.17857503821303447,-0.18817165857098989,-0.2625130936613695
0,-0.12966912180101958,-0.13831740582261848,-0.09179909088620301,-0.09406277355349099,-0.11143183656276763,-0.08771586779400624,-0.04305257239168108,-0.05017318358636806,-0.12241335265043458,-0.04236845114151724
0,-0.11189254414315171,-0.10433366163100734,-0.07824842360034415,-0.08089409047222088,-0.1401985017043376,-0.06730883544772005,-0.09766014284451387,-0.07005485969611355,-0.11270468064753209,-0.07565792608195275
0,-0.44016688776744045,-0.5484179548160943,-0.3124791740051242,-0.3790162161550911,-0.5155829550286197,-0.4291578783888732,-0.45879191502309175,-0.2945962257732217,-0.3844786226994869,-0.3869204987194861
0,-0.4126566712960544,-0.4429760903025294,-0.35362377739817896,-0.4236345663474347,-0.4679850653466613,-0.4419322873538144,-0.38796943845200804,-0.294650682217244,-0.39473720647960714,-0.4023363268375326
0,-0.07000318294118545,-0.06420052103575384,-0.04913166682167727,-0.06458968141017825,-0.0745030531246079,-0.008933347276782213,-0.04890670712924235,-0.11432854986034685,-0.06279496716801972,-0.09186404401238106
0,-0.1218633622625105,-0.15106284260103217,-0.04996915249546136,-0.08647063636835452,-0.18633632349008772,-0.06538799366905514,-0.14146250078241202,-0.073956204569435,-0.1247657603546126,-0.07799732449893232
0,0.46433396643608427,0.4887810021211319,0.27354940370741937,0.316536402931071,0.49777805783514284,0.3833407873402788,0.3438420971763427,0.16483669466305564,0.25948624827142736,0.3251493680824218
0,0.2522496287497408,0.23101354908098165,0.07463483942535856,0.21854405278868871,0.21541587880228036,0.09988836701950053,0.15037387095416138,0.0970813803136842,0.14003213258531283,0.2164053040566811
0,0.26974976760648733,0.2250056468522019,0.17197943556525755,0.25360297612068283,0.24204088969849344,0.1643532242874929,0.21303105341171988,0.15459373500623294,0.15700455085672266,0.25454180534815274
0,-0.009375231300375365,0.05217771782054469,0.036251839874868526,0.019494772354833996,0.015206516472558617,0.018014527973726012,0.0067123869688154765,0.001976490220401115,0.026813541135702987,-0.0028817393567216487
0,-0.43086970126129814,-0.45062544893215345,-0.3020995747838694,-0.39519382387907737,-0.4263276158586468,-0.3724363193749225,-0.35807548330512945,-0.28751846124888153,-0.31628101372599604,-0.4002935469905655
0,0.15848365797932196,0.1569624289523257,0.014393011279024986,0.050160685618369276,0.13171669489443957,0.1163408960293225,0.11932436564359444,-0.015806782810991158,0.12085573090319521,0.045151717260840565
0,0.03001193786829997,-0.027473493583307546,0.015622428612565133,-0.025837024194265732,-0.046653383223918335,-0.00689597783603142,0.003425769953875631,-0.06259683656709865,-0.0038337795450927993,-0.0056996014637252885
0,-0.04103941804174732,-0.05233514306370525,-0.08016342712741598,-0.04645626351342947,-0.032101838430413164,-0.05091484798284827,-0.03322922434027018,-0.0524204368147455,0.0019905834471856724,0.018906779465850808
0,0.0567362210503102,0.032490715896306,-0.010486366480952875,0.05728618782534613,0.03069737527541052,-0.03060002352739444,0.005881363337774421,-0.007375672055032389,-0.034027724695319346,0.07182307974049533
0,-0.1206726731790028,-0.11330025232924458,-0.048547170607232605,-0.09904051282136324,-0.11213627361434404,-0.13082884955921342,-0.12294296458273851,-0.0857584600808527,-0.08145899805574713,-0.07255824145222398
0,-0.06095247512440433,-0.07964638839261916,-0.07305800595764367,-0.04784813089908228,-0.04010899146107577,-0.031339500911797914,-0.07658120055106446,-0.009946971505904999,-0.04079551143533656,-0.04704420311289971
0,0.037211020754393705,-0.015981624223049468,-0.05469098695374198,-0.029112005349869182,0.00832744466709164,-0.044228013270180055,0.06456136421895198,-0.030836778013964623,0.06152516772455838,-0.03004390704111891
0,-0.10365006918184823,-0.11548242889769494,-0.09882639398004464,-0.07320777539730387,-0.17212821788277743,-0.14000710554727577,-0.09562776590742252,-0.07544304630154366,-0.04258189505204416,-0.03160884912671252
0,0.14454633666998112,0.02105439679645894,0.0006392354757232569,0.10855018448406008,0.14920318198516042,0.06442486113041276,0.11557041383199831,0.08763385217451616,0.060817609745385054,0.0932757562603689
0,0.0014009765395102166,0.025162526056534674,-0.023320243647000194,-0.029515129815719972,0.04534941009644369,0.03995985723159432,-0.009126023688718144,-0.019930361404532818,-0.0032094030870988568,0.0007672762380779958
0,-0.03452763577822002,0.0006436831347632057,-0.013665783519699437,-0.017067807836290312,0.010624036365124712,0.0040934176850998035,-0.003220555010967812,0.007273433128699748,-0.034009453353381645,0.05232773284442841
0,-0.016971882667554398,-0.07652163923364827,-0.0663143546854035,-0.054105810230365356,-0.057435579271995704,-0.05817159004413392,-0.047492693045900196,-0.057401711541183384,-0.04118874796356911,-0.0758078287434482
0,0.05554820438055136,0.08081352558572452,0.014127141051425525,0.005195656753363782,0.06679734820701645,0.10889081293190853,0.01092330503889106,0.07590508746377267,0.09450251664257918,0.0361439277959857
0,0.04304553479890135,0.06693188368533078,-0.007535085546472795,0.07211232212683394,0.09414700188181106,0.0034913204316807346,0.04785687845023973,0.0858766747736362,0.08301508687764673,0.12641109629111508
0,0.12134331895622018,0.11106510379727941,0.04931963450573473,0.14742007643294636,0.14643301716602738,0.05763412594625753,0.0740164799766758,0.04561926733871434,0.0875380013445775,0.10235130874988743
0,-0.09306873802646087,-0.08437575388398913,-0.059443585220620536,-0.048660699797896036,-0.10265212011845155,-0.05065290401102503,-0.03875054249751022,-0.04138918378635499,-0.016927118137258744,-0.0405570807790983
0,-0.09809265300108817,-0.1399590058919697,-0.0866527896896208,-0.06934531587746187,-0.022972307211877714,-0.05410405921465764,-0.08229137279366115,-0.08747903035050275,-0.032666160799049666,-0.054089817241477774
0,-0.10273376454885885,-0.16004117209033006,-0.05004954154443733,-0.10327651947969994,-0.17400258520565084,-0.0673751100680196,-0.12097806416573098,-0.039672224358265944,-0.10509407934429493,-0.08261918033416735
0,0.15941948057708433,0.16438689407519128,0.08895613031517909,0.14113013982606631,0.14758605745919384,0.1766625510404527,0.1707047413966547,0.10055639726102567,0.07727852473174365,0.10810082707206467
0,-0.10285860006283089,-0.17499823588955027,-0.09866635068491289,-0.11562032789273538,-0.11109001626446982,-0.15588383239034959,-0.06746856463223355,-0.12252248336996689,-0.14815426808150067,-0.09511343147585115
0,-0.07153421140551003,0.024203989956006696,-0.007542392498805854,-0.05677014268143587,-0.06234511931137416,-0.020014830189972462,-0.04396439080703155,-0.02945745122878193,-0.08065707337042553,-0.06320553678279324
0,-0.10881708206889917,-0.01487621441677753,-0.04685060763154088,-0.033385129734233576,-0.04641729791145991,-0.023542600363302267,0.00392084385762995,-0.026226713443424778,-0.08597769581589836,-0.041086822272060904
0,-0.08156482827122036,-0.0681227746461036,8.429441947735251e-05,-0.062210511001705805,-0.09491669549239291,-0.044997172443472656,-0.06085860252221273,-0.012609853085023444,-0.021927343545433742,0.004401029524468478
0,-0.09405877185853259,-0.08958115355157652,-0.036127290785857254,-0.0876229138452974,-0.16375723989665794,-0.11904483876529964,-0.10131418928006697,-0.017226132255715905,-0.05256188094261824,-0.11418754084321839
0,-0.2425590504354809,-0.18313532719430234,-0.14422888184323265,-0.20581492328944995,-0.18555956048061717,-0.15699003709917442,-0.2184741108734925,-0.1416947523288657,-0.15103101847955924,-0.21562359521395313
0,-0.015413782429788515,-0.055180227246645216,-0.03416421616736932,-0.021603799133182583,-0.015523083947573534,-0.08573466421564807,0.020422960285826634,-0.060369508842141435,-0.03787507123314606,-0.06727549013195346
0,0.07234807051404829,0.09199198271842209,0.03337136240679159,0.05308804586565359,-0.0003622172073437652,0.03330986490638657,0.06639047682848563,0.09543597176059829,0.04171198878065189,0.0357922180040379
0,0.04808938882661151,0.036236245654348784,-0.005680469103642618,0.0217996233262211,0.09484381784327445,0.05335747817178938,0.036219076179637655,0.026569912936625726,0.0024368536460087488,0.05962823738731645
0,-0.039794753888551714,-0.013858657966414377,-0.04741991156190417,-0.03291551434970997,0.015097246750137159,0.029968767180633706,-0.04914525724935592,0.027584975273635296,-0.04203827000441188,-0.003177959647531224
0,-0.05641073159452592,-0.0010193196777783687,-0.04320121052453646,-0.02421073300534003,-0.09828417686814522,-0.017840071906497612,0.0172770130864463,0.0032639746792054586,-0.06844108586137161,-0.018842754683736435
0,0.1624188764487527,0.10768951583018974,0.11850100316788444,0.12832857173266274,0.1534659736187896,0.0371966983037977,0.12541024280410193,0.06093339443618444,0.08316806238870905,0.11997104606974018
0,-0.12812551993105434,-0.13015773977013254,-0.10683290386178589,-0.11799067721653195,-0.19855977366350208,-0.1105839342940478,-0.12196266828600676,-0.11014261668329675,-0.1088081422314821,-0.13473745891284433
0,0.07787516534001923,0.03439248030233643,0.07013280652063877,0.05828072392359762,0.015039327577785463,-0.013502089108633862,0.04805269903395614,-0.004755615417170456,0.00469883278164494,0.05820056573157264
0,-0.014018511051519186,0.04507202243096171,0.030841526999557854,0.014533322036665696,0.005732208547176025,-0.01814856024617714,0.012870568194511873,-0.005877925552395999,0.016188667230792816,0.06766490205907104
0,-0.07123059951245223,-0.07082419716919895,-0.024981649356638706,-0.08046844786714095,-0.053150572477629325,-0.09067411350790903,-0.022935771911719388,-0.010734875497306179,-0.0367192696365309,-0.007325531752625041
0,-0.09371870851907564,-0.08976666732512266,-0.09306590105474298,-0.04363029092265112,-0.06902720848433319,-0.1055685741924271,-0.061770554925397944,-0.04543171171811259,-0.11379675828177684,-0.04687696024313056
0,-0.05207386895345245,-0.0942934016505923,-0.02679916709639815,-0.030236206392003303,-0.010199545770459686,-0.024407342730164837,-0.03716954661461774,0.022685582697084185,-0.02807940491966363,0.0124940151756794
0,0.058732832763552366,-0.0301891274617656,0.012767341291092037,0.04307637467370422,-0.014569656519696921,-0.012743911956502325,0.05483198399785695,0.027084194629527176,-0.015072596866088616,-0.004553561964638392
0,0.03291440683277928,0.025466427007741103,0.0036053626680917546,-0.003593019627856395,-0.02960018772485193,-0.03325513490924637,-0.009749526410047851,-0.07650401055796797,-0.03565384591773767,-0.050247947740613544
0,0.0723614228445984,0.04015103610501664,-0.005196055762655948,0.056138771192875914,0.04565239803604796,0.08037128833052314,-0.012973047235953656,0.06751051442531941,-0.007202535371138778,0.04931149336991556
0,-0.020475255906651873,-0.029570067526869227,0.01762008757140779,-0.06834613718456643,-0.04108818593714201,-0.01866008064055395,0.061613091141501444,-0.005899336210342338,0.043814967507005524,-0.010178924079720389
0,-0.2699835680621847,-0.3406387087633102,-0.19126985015077178,-0.219050104956624,-0.26893470591112206,-0.18193912583675828,-0.21505606915867218,-0.14418852293244275,-0.22268481507596596,-0.23350823798906395
0,0.14270928724044796,0.00037151966293569186,0.0023582385936203273,0.05988486781530633,0.013451597902549428,0.04550480791276017,0.004314227395024135,0.04014918935654435,0.06354728083480914,-0.000738580127404287
0,-0.13624713670494695,-0.10206788234772546,-0.07747843765294442,-0.06141920708840228,-0.08469675686280585,-0.13622486678517473,-0.12710066559334451,-0.07273295561614287,-0.13294894484065278,-0.1262748947915893
0,-0.06808405050594071,-0.09510883219028497,-0.038026160120212406,-0.0775176750675514,-0.06313804397211507,-0.05299808251097947,-0.0631011244930788,-0.004615983364014678,-0.010951644424810305,-0.1063413775588866
0,-0.04763741569339482,-0.04736804352730075,0.0099905822967793,-0.009200536185120534,-0.030629816041647585,-0.0669164449099989,-0.038080537276278886,-0.00969437389118336,-0.026758210744745724,-0.003109842712621824
0,-0.015342691962875547,0.0010248745751477815,0.030227364487653185,-0.04121391704778379,0.07053230779091162,-0.03370143349940273,-0.017719134926134403,-0.03877841172435665,0.02909715548656779,-0.03310280493238911
0,-0.02138722019554078,-0.03342818978014101,0.03373244040026186,0.03360489461088802,-0.06306405353002252,0.014712114685001722,0.025951197733737982,-0.009744499837652812,0.026333748001283266,-0.0014307737565596513
0,-0.17370024242186707,-0.176189530898557,-0.1027684069661912,-0.17439756089795852,-0.20986423888827677,-0.17738746762366464,-0.13129444368352503,-0.07348997072822681,-0.12061057436486847,-0.17391159049142127
0,-0.08292113428747823,0.00347490476369375,0.02463299532853046,-0.003912927326455224,-0.05264985522777174,-0.027033576986542456,0.036351412965367834,-0.0510511288082047,-0.041717282110690965,-0.061914258928943
0,-0.04943516592302393,-0.11423351113898131,-0.051760409055381165,-0.09213025382786974,-0.03570282270143046,-0.08982503488772475,-0.08969968105620595,-0.024495231031369927,-0.06161540361481805,-0.07023086250062781
0,0.10140230089168842,0.06210627140328699,0.07252169870839584,0.10573144929342687,0.11444971183367193,0.09842793968694459,0.09312504168833682,0.08628922742483483,0.055278869992729254,0.10821319290074358
0,0.13533790700150788,0.11539416268892268,0.13489682327184105,0.10222898360156578,0.1681523672811146,0.1265279377708265,0.1110482346549723,0.12902189599629846,0.19363174621315987,0.13220398432597563
0,0.006783238638496728,0.048753382211606584,-0.01083434545534951,0.0316732190686211,-0.030332650117675306,-0.04634065370986047,0.049632823790608536,0.019473007392010373,-0.01966397252614585,-0.017342333536735585
0,-0.015658046437217316,0.04152746014695941,0.0032184777690636326,-0.06360482813296757,-0.008696036032534193,-0.05843574948979168,0.01292016363847845,0.024907347319374124,-0.03456500108292378,-0.06459318065276674
0,0.03598431622879112,0.12564646437475743,0.004062012177681295,0.04707986094892835,0.09184916079863273,0.09806966596781393,0.013947909049610045,0.033892832053388645,0.07516336171566795,0.10088461041393294
0,0.033594008572631714,0.025177027313952622,0.05081831114741392,-0.006106614186502098,0.04626769648589284,0.028904983467579193,0.039207895614591426,0.019449238171585583,0.050733775476312186,-0.004285391387117524
0,-0.010755731428029928,0.02200077533495974,-0.03224307574681888,-0.0523203254635003,-0.041353637509758026,0.01529259671800492,0.038668301650566374,0.014507093546781808,-0.0216798011006326,0.019969078696174754
0,-0.017655053180866288,-0.029766967059157632,0.04005878281263569,-0.0400224050035538,-0.07354598100784328,0.020525354697857556,-0.03572093098214828,-0.0438479926266163,-0.010820390056285467,0.013976148673799869
0,0.056535325253516795,0.11343892509820679,0.027558027997347846,0.07011563398907165,0.07805586976677324,0.049582743965903675,0.060686925012465365,0.034132983744812974,0.09396791479547448,0.04464714095712445
0,-0.0045908121399507295,0.027651468551076225,-0.018265889414099738,0.03044990562015609,0.043799937758298636,-0.015240530232266427,0.042251960605292356,0.024176566869231288,0.0289990587492521,0.04725535213279018
0,-0.009622936309122436,-0.013210486057103983,-0.0620047118581274,-0.012187827460517133,0.027342529859284852,-0.04558266172842764,-0.009572013908675939,-0.046597955195453206,-0.01434851666683625,-0.020298828672903817
0,0.056180505443912836,0.04560335821668672,0.019749823576607792,0.02906486920537844,0.0022311843630830218,0.07310597867771246,0.030788347543516274,-0.027042728900620334,0.0597529152739725,0.02275689900832959
0,0.11092314609520519,0.016987032010684803,0.019725477440415244,0.04798424115304021,0.10245077774648606,0.04174888010618491,0.02862387353565624,0.0018416554002430219,0.06607230723135374,0.09622024246157466
0,0.010305053834916231,-0.018294501231447,0.01850653717725963,0.049558645922910066,-0.01724268983600006,0.018354524908072236,-0.003520158646496904,-0.02500685406859334,0.034640502902384726,-0.0114484857807794
0,-0.043876264711523325,-0.03289101922436594,-0.05913228745670024,0.00919328382877197,0.0020852993786927344,0.02365413739286377,-0.04007783765832466,-0.056960218579126566,-0.05526420516042361,0.03013867253929889
0,0.1273742635277864,0.08819402656313786,0.0809333594890935,0.09046421025055552,0.07956532304892501,0.09274019999826032,0.08099621336222007,0.07413429676913046,0.06780671130985531,0.04904460026346122
0,0.10556324117664656,0.0707300747358926,0.07485719055239344,0.029833557535763906,0.06804824397767005,0.08354427503749774,0.0646364112333618,0.07443352238935969,0.09214916504042663,0.05582159014394799
0,-0.17177752461720636,-0.11452161910456568,-0.15722692324519863,-0.11501240674330038,-0.1901653868038163,-0.11444190340492859,-0.15491813355750667,-0.1371182005657177,-0.13999680709953072,-0.13842114538659647
0,0.07287617439942214,0.09007272749117616,0.10229844547520121,0.07347218417249263,0.0746151598700024,0.055597304465768965,0.04195647233258455,0.04553863000948358,-0.018049993759894075,0.04634458697098715
0,0.11908297115565654,0.2147561839505731,0.10892716988247887,0.09714321196304335,0.1122599682689143,0.10570297246281941,0.11034612755540364,0.1393810175357322,0.14507978614918982,0.13305471967934382
0,-0.14746996181710315,-0.11063590081810165,-0.0749115892229073,-0.16708469018365135,-0.20294466114636026,-0.11268328482791323,-0.14314712199268326,-0.13316739977784406,-0.1524823655122972,-0.13446795370927936
0,-0.1150767282464717,-0.05501617420859739,-0.0653624790386975,-0.0523735952643942,-0.09071387915928096,-0.13113832567391207,-0.13208913071978687,-0.058499748499423125,-0.0357957079802167,-0.08399092498567412
0,0.06266551931609986,0.09576925965481597,0.037987595382225264,0.08437445183282236,0.032983899691447556,0.022229433892787556,0.08423878122394102,0.05237053551093713,0.018196590587708845,0.08382950649926217
0,-0.1528148327308208,-0.13945649877968996,-0.10621448558292887,-0.09862854453221091,-0.13359540053541785,-0.10636569865154637,-0.14714737736663744,-0.10907879422538835,-0.11268191657181405,-0.09350310591924724
0,0.07066636339072171,0.0010713920131845815,0.08422227323222713,0.04906251237319368,0.06398467429971763,0.09121750055553897,0.004605628861998538,0.05408958269472078,0.022063126460827247,0.07217863652013695
0,0.05517859742546648,0.05372934519434616,0.0935214787302193,0.04873478716364404,0.02106949737371659,0.04143813259357624,0.10198852600423886,0.014054321622357428,0.07417314072431473,0.019501712192637403
0,0.055625679833875966,-0.02498386320462175,-0.017888317141643587,0.004402381716370263,0.04845434332963189,0.0604320977754724,-0.056305454773347606,0.03941696554430962,0.032640206129085664,-0.016288963727763985
0,0.053817150863646745,0.048967123029939136,0.054570913773547794,0.04381395582222834,0.07806075135405598,0.05185075060248969,0.05641048744331004,0.0907379837985575,0.02021940181422373,0.08525102404282238
0,0.13377976792848595,0.14672166519574553,0.02816061558895929,0.10821876751816674,0.08786726029460959,0.03686208078481279,0.07688619525998776,0.03812134134884397,0.07915624808621614,0.07505113990960156
0,0.13583746911584096,0.10269257701716286,0.09727508099048869,0.12871560463341522,0.14162024115500554,0.16962378591607202,0.18690381056360147,0.1558370096455283,0.11606874273442827,0.15278988022095696
0,0.10297109113921181,-0.018905245982448266,0.08160730666532151,0.08556157140001282,0.13253062852998293,0.050943459556588674,0.0791718373201992,0.0820486128356547,0.015271086586515655,0.037686161221208415
0,-0.06385600219342322,-0.02275045986272009,-0.029496765409050597,-0.07038288687215503,-0.05184708842610213,-0.0017596372235822169,-0.027175436464569668,-0.046414348410860395,-0.026065448431994275,-0.051517142592344516
0,0.06182184962585827,0.007957728950570404,-0.02677090983289118,-0.030265896397797226,-0.04282861422932022,-0.032366360696756954,0.014642888131313953,0.03945408898883972,0.02454903041634485,0.028780980392814955
0,0.1964792766885331,0.21611202179878689,0.06505936901563117,0.1524338389527436,0.149215790508831,0.1359557509121025,0.12711900132634407,0.018693516995804155,0.12111494901600287,0.05336540989493907
0,0.03500285397866969,0.026230885446615206,-0.020117289478302765,0.011382354549748177,0.010244477435361974,-0.0009406003638000993,0.03576781140397203,-0.02476440015662545,0.04149734261467961,0.0405561218538229
0,0.05499737425873082,0.10993302204506562,0.05979618225527218,0.11075265179624193,0.09994229532396152,0.0358124770492906,0.09517302790703756,0.08418101093257176,0.07889327659010534,0.08580045678592761
0,0.09854407114714171,0.11964104511758093,0.008799739176459627,0.030950431805569487,0.13379838774703035,0.028568982368591248,0.06374540421800554,0.0028550372988978873,0.05992170029394859,0.05315495394024636
0,0.001137718395237646,-0.026194064107569803,0.027150742259485383,0.019181991439057394,0.013222909684161278,0.06316427172789169,-0.0034518444251261707,0.026637738952485734,-0.005602778399821358,0.05930365506573634
0,0.09636721764240297,0.092269894738509,0.04329970139006998,0.08881867107327443,0.07501168193851582,0.11375091294105137,0.052389156241353756,0.051886662319826166,0.04496084460712536,0.06343701427222352
0,0.045229156026574874,-0.014370321631276413,-0.007777947838548728,-0.03492767278435099,0.06462694468266802,0.023163317967677784,-0.01937802903381925,-0.01635409481575341,-0.012351348327285657,0.015828315775647847
0,-0.13882339981062716,-0.11830307786827288,-0.029195381892205247,-0.07155025297341064,-0.07377978694044342,-0.08531950706470887,-0.06660204825557436,-0.10353042166823803,-0.10632592688071263,-0.08478842110630327
0,-0.06189701123560282,-0.018399603019717787,-0.08695086343712242,-0.019457580826973762,-0.03389314663991333,-0.01915065822539571,-0.04214698465026116,-0.029188911199651793,-0.09378083282068667,-0.051091879531327315
0,-0.18560206263131945,-0.24426952521214645,-0.2253377072490592,-0.2155994244993985,-0.1933915162680505,-0.21287606316107727,-0.14119196996452157,-0.11710711364111748,-0.14280051893172055,-0.146902927820236
0,0.06922481745611825,0.0025952655622334246,-0.012804494508746198,-0.03873919866462495,0.04490041784663941,-0.009038167232456687,-0.01105782975648487,-0.019628482941348453,0.04146189456673986,0.015549082263220571
0,0.03866790638378586,-0.025837744515667765,-0.019472842310409185,-0.005999263671951649,0.004469002767346888,-0.01576668645196676,-0.06259196778638085,-0.016972122536538743,0.020544297438216688,-0.04449681278125908
0,-0.22656155847610207,-0.2148256216202158,-0.19271467655687152,-0.2068453644332166,-0.2083993181037638,-0.20109420941953704,-0.17553014352797633,-0.14947648301439256,-0.12681925513309805,-0.14556260575354413
0,0.055070560274369344,0.06881934839932438,0.01964788772037566,0.03528420112631998,0.09331591624824885,0.007734430539845252,0.07107902130465572,0.05125633984044887,0.012991872414055427,-0.0027770164940957736
0,-0.05344283723596456,-0.13526656225453978,-0.12725530200712465,-0.12427814025952119,-0.1345093923185455,-0.15710047526384374,-0.0691785509876768,-0.11265431975103297,-0.11144316284438759,-0.14447085354953762
0,0.05734475226412248,0.06671777897967412,-0.0024911526806111407,0.07026669326818404,0.04378731744517709,0.02339897579679305,0.03761922185855522,0.04201369022904844,-0.012782661269489164,0.07836591883494488
0,-0.14219022991851227,-0.11849610147879823,-0.03709824462629615,-0.058832464342186676,-0.11242013314402168,-0.07481666841126981,-0.06524754982706447,-0.09363309322170038,-0.04282053303012631,-0.06455839124963438
0,0.022959622030150676,0.04739796934482873,0.07527787250708472,-0.006801132736323685,0.03803429647819135,-0.008986054324662044,0.031154798985978307,-0.01662519096630901,0.007834202268199128,0.0767324910480653
0,-0.11146257953352268,-0.11483201418208917,-0.10988406963499968,-0.11256313927208104,-0.10046591225476603,-0.11476732755323592,-0.08887484627399289,-0.030731385569332664,-0.04282727430135807,-0.07889548512511214
0,-0.20518534322056703,-0.20183231100418136,-0.1164537778330335,-0.09922266935902226,-0.12168197202393599,-0.15878340646878816,-0.10792405746692194,-0.07917708814791194,-0.18551987202370873,-0.1835044631315506
0,0.0866256637238173,0.10224726781141742,0.023525704584205383,0.0722867580308419,0.1375668635226887,0.06322254175964633,0.03959635729480823,0.05344911979155168,0.04050837100164323,0.1073083774586211
0,0.02210199221874577,-0.018954601025887516,-0.06208566578533677,0.008013474055693396,0.04694876334083595,0.01928834910048763,0.03214868066968253,-0.003334188652934084,-0.06227322976281329,0.004370566622916874
0,0.09202090496552638,0.035769550400685204,0.07398319779167488,0.057530032149084184,0.04852156260948415,0.004490045943947993,0.04951472942979796,0.026942867041849172,0.07571470014814498,0.08024452602192987
0,0.000951016789825815,-0.08448994026095598,0.004083998961966147,-0.02759736999057903,-0.061612941737176234,-0.026914858776964,-0.07468916359954211,-0.07895759594771957,-0.024321316368197374,-0.10374252335812353
0,-0.09814860190649172,-0.1282203045077199,-0.0799204362322183,-0.07300545616184016,-0.11362079776371571,-0.1288671719726175,-0.11979415473356793,-0.06385388409010871,-0.08554703578129912,-0.1336556890944858
0,-0.04266315782599065,-0.06761214268361873,0.004186514443833887,0.0033321019937016865,0.016296737477543594,0.017778920006717054,0.04259724956407788,-0.022131843778579675,0.008634780283485638,0.022132320900226054
0,-0.02065464934958715,-0.08650954776840765,-0.09083507389919236,-0.07676289346844728,-0.07551831221849896,-0.07252332798311392,-0.04147884839335549,-0.0031645264763099984,-0.05336566344404272,-0.05530660091666391
0,0.200864419371964,0.21048745975360522,0.15738969724868232,0.13732012017454728,0.21134303579004154,0.18850392816629694,0.20150124755847978,0.15161283082751964,0.14924177339551345,0.182520052263265
0,0.08726670366960271,0.18950597445264525,0.06086393311277168,0.1872963923395418,0.12807468838167235,0.1674565912379217,0.12722088561665157,0.09845726799793236,0.15171873864135468,0.1846206706451751
0,0.07818046892155986,0.08068523628592786,0.11889043896065096,0.0688526734344162,0.10338570001833784,0.11808213646514164,0.09042148781670889,0.08529249411886684,0.061792139950959606,0.13808772845645478
0,0.15203008351094047,0.14221576264670413,0.0910071289295263,0.12402270301813387,0.09702335691322937,0.15020858842512114,0.11607467500568566,0.043923627560722905,0.16638285830458555,0.0876120138779923
0,0.08278675285260868,-0.03591225782848001,0.050022868760304776,0.02272246832571283,0.09428103501901684,-0.024373399470127954,0.014939193086805204,0.014341776926185096,0.03737311381947994,-0.0017619967000390949
0,-0.02586125809040738,-0.08561382148772356,-0.024005258946600664,-0.044081047523869855,-0.09177154803228717,-0.04233283680761496,-0.09465607317491216,-0.08967147528222705,-0.015957311649885893,-0.05124335128450253
0,-0.15318185182856023,-0.16070977338269304,-0.05929563553742755,-0.137846089201668,-0.09954315249084254,-0.09902602165474735,-0.11262130669587023,-0.03570223430094049,-0.13573323073177287,-0.14984616977681325
0,-0.18690165203384768,-0.2000488059482714,-0.15096195416648464,-0.12523952406990388,-0.11062284850723177,-0.1282357130281594,-0.14258364353147512,-0.10976958315974708,-0.12026990154875625,-0.09631327535401803
0,0.11761482395235735,0.08765973428523477,0.021520629930506397,0.11031265743671605,0.15613439424158818,0.07543796377564947,0.044800080127126815,0.021170774296284143,0.06205519991710247,0.03602999944566852
0,-0.0324000187031489,0.04086884410507931,-0.03552286599154627,-0.029192001571281167,0.0007977617737948365,0.02030182553312303,0.01588086680325541,-0.0402475389652458,0.002273916972504206,0.02027056309739299
0,-0.5205683153792972,-0.49198931951348407,-0.39233103580452966,-0.4385575874967335,-0.5882572673520591,-0.468130814150451,-0.45319123666444266,-0.36923732830267075,-0.4019765222651001,-0.4637136018653782
0,-0.12240680661328208,-0.09035389227471231,-0.0463742805985761,-0.03340924010672066,-0.1414159314008347,-0.079338116088366,-0.06186208458113558,-0.024569861270573798,-0.0742038721167975,-0.11375502648566982
0,-0.028837617699003545,-0.04067126604834139,-0.0250551017629627,-0.025770598310044412,-0.03151005089904398,-0.03983696484426203,0.017421562778067685,-0.012820260479558974,-0.04746705095987396,-0.006324636604155294
0,-0.087801218084436,-0.07087259874450828,-0.04983699559693757,0.0148318306963674,-0.028161881559765026,-0.03968404942519652,0.011240897443088206,0.006847928804584926,-0.046801222850769514,-0.04291240853879241
0,0.029436819051214546,-0.022838694198321664,0.04008900240758447,0.102978324749515,0.01703624590705785,-0.028733439123701045,0.05045825370572243,0.05839881665391177,-0.010696001083502936,0.10679413525739777
0,-0.011472448671962723,0.018837146060318714,0.04454033157711457,0.0374273932794503,0.059919847661094434,0.012677910123064786,0.09905124758865627,0.013394035816516674,-0.01479316682334165,0.06596028605566319
0,0.03577024106648383,0.0010724271397041562,-0.05585345498683754,-0.0018133002974696148,0.025032005524503395,-0.04969765498354894,-0.060944162080004666,0.01750853258398186,-0.03913001312158629,0.025265036843295185
0,-0.11829752501095352,-0.06238115101747069,-0.02375128816731581,-0.020216924278026488,-0.12797126741056716,-0.07565483993620539,-0.05327372991297939,-0.09320061703655352,-0.08349081473928768,-0.02797297481878766
0,0.02819338631298938,0.07287552370152064,-0.0059851349340242525,-0.02748698712402281,-0.008130421247882979,-0.008936309561121219,-0.0168056188189051,0.037336916931587076,-0.008826813927005224,-0.016797471787237287
0,0.05249175296412495,0.07111247101834835,0.09033551078801703,0.06153908522289468,0.10758644530237041,0.04014377347903116,0.0742874264768497,0.09339890671652253,0.11495060299937418,0.06905898693689709
0,-0.10644327321043903,-0.1517195956167118,-0.022527951926593848,-0.04853299246701434,-0.16646904180906547,-0.0770772965905973,-0.08651173503483338,-0.03221948613749428,-0.008652203643372079,-0.08307683244205237
0,0.07246777715194723,0.10128355686496857,0.12444999780451105,0.05240808443732987,0.04868968776468749,0.06453799269444753,0.09328499581808983,0.026771137326741207,0.06787152260765843,0.09761416731594173
0,-0.12493941280289975,-0.12072181986992457,-0.0272439142015312,-0.0917585934741053,-0.15368053915024438,-0.09381833855340184,-0.05665362304613694,-0.04224804032909673,-0.03283435157569223,-0.08532936394042
0,-0.03433131258394239,-0.012195788567724823,-0.01702590351143113,-0.024734494636695754,-0.038052442416237446,0.04871317593727357,-0.014449161747427743,-0.009136635433410395,0.037324385973215975,-0.038670619554770747
0,0.23234807657844175,0.15534217524513622,0.13030553004690812,0.16731898326240927,0.262397072058785,0.2043804046078387,0.13745321530130555,0.1814743703151256,0.16256095581621463,0.18165046223582437
0,-0.019389263307970167,-0.019977002381445695,0.04283842623330795,0.013276156321312054,-0.03398067892989688,0.05881455656958466,-0.0034002584945530246,-0.012973754086121806,0.0002040093821232934,0.0543458028742406
0,-0.020911694530509017,-0.0902483188968414,0.027558156778706423,-0.058906412280430996,-0.043920394064115985,0.0019854510903458554,-0.050123846732648816,-0.04434947748151711,-0.014194882297368712,-0.0011602419407113027
0,0.006325781046304007,0.023533453671403085,-0.02664947377534859,-0.02480733757782852,0.013353772139464246,0.02083647921393599,-0.04349286956270136,-0.0014914555223602532,0.03198736520469652,-0.050956587303090495
0,-0.12400224100378407,-0.12804281014310845,-0.07621166859695873,-0.09259926937664006,-0.08032793599445452,-0.06645402908478104,-0.12500535667770857,-0.06655718425561889,-0.058102361644341884,-0.026196694608047924
0,-0.003866284441027454,0.07197497731158996,0.06252463036982046,0.0213478216364663,0.08402075700914811,0.026036910381320458,0.009474687064495267,-0.015239872848935295,0.07313228096354728,0.017780514538011185
0,-0.028176330334975425,0.06518186789580815,0.013161518584673909,0.007135782664015613,-0.018852838281480915,-0.06827334250630032,-0.04284977922522679,0.005659196436929889,0.005663777358907189,-0.02459668023651133
0,-0.09948936453640937,-0.19681115921188327,-0.06158055500701916,-0.05726985837402808,-0.09899815686891736,-0.11029399887062927,-0.07776255456054562,-0.027510273083273196,-0.11708460553571647,-0.11832268718410531
0,0.0778802195251477,0.10520534553631558,0.03988397390330834,0.0863813828550526,0.13978525064373654,0.13927947066840415,0.044156804900675466,0.08393735504698696,0.04955844795267485,0.06635914630284473
0,0.12829649949986857,0.06403606151723866,0.04895251351222904,0.06944198409791351,0.14356033004091748,0.09757954034509127,0.0382091672617877,0.10164452409444712,0.10359833592498109,0.13894070699755956
0,-0.07433468044729036,-0.16236072421000083,-0.11141060477791431,-0.1206838243189319,-0.052364612811598224,-0.16261644736959313,-0.16200215208457847,-0.025410111906438406,-0.07900441446445781,-0.0785743041833808
0,0.17613413851150453,0.13616936699700358,0.13505920662772727,0.16326237601570678,0.09537367862770799,0.18469634310357202,0.1495756851899807,0.07349930885063989,0.17036911275069663,0.13545208302265827
0,0.0167536093772516,0.0032926607425758977,0.010095197654296341,0.03077905883097317,0.003742871232584233,-0.0645575493634609,0.02812529558741942,-0.024412187945177598,-0.00134942815476516,0.01735090110176444
0,-0.041504260924792466,-0.06410532123042786,-0.0917039868816285,-0.03410821205973331,-0.09208493893121265,-0.07415610367522225,-0.03722483558225776,0.004583234521825509,-0.01624222382610846,-0.09266366450856922
0,0.17111224627032534,0.2426315120838638,0.11132672900580064,0.2051201829737869,0.18140825113463133,0.175204715544946,0.1998415659627939,0.09843329436393158,0.21721290849442615,0.24090801229425265
0,-0.05707334897714636,-0.10653117414053585,-0.08983498011369302,-0.09058509290420881,-0.05419157223974764,-0.08504050258542971,-0.04189357629440126,-0.09223791015262493,-0.04809652519715077,-0.05108673741426923
0,0.027600969383767722,0.07732016434541476,0.027237763236977405,0.028934594886488613,0.061444858096391955,0.10926865419364389,0.0979353919596085,0.09727782107895531,0.028809837943582293,0.06641179796418681
0,0.02740089610028956,0.01036732776407483,0.01835649145043599,0.07011649291070295,0.10149192816558618,0.07526508916296372,0.016134047666766623,-0.004591808574943788,0.035351468641553044,0.013741303188070547
0,-0.13879998664810875,-0.11337635054372372,-0.0878043813145357,-0.09369914955279574,-0.1209546877138145,-0.12337583751583162,-0.11293121873262849,-0.08839640111507889,-0.1265165068078719,-0.10694935367658823
0,0.01750385993700447,0.10405865064359965,-0.014623700213049743,0.02328962372209015,0.0545521103541473,0.012841661837543601,-0.008013062207739875,0.06505400479328048,0.02550457122472495,0.05158274327686779
0,-0.11046033776504562,-0.11166308063606542,-0.12371750765065803,-0.06641037277054271,-0.21794917032040712,-0.12536936831760864,-0.14853105412716744,-0.04441043950697059,-0.1326093799507518,-0.16519970751123872
0,0.02886245321145302,0.04535819377587747,-0.0018573919656109717,0.08362682362511852,0.08896176436644891,0.08157598881105835,0.05090339615196544,0.055773891010994475,0.015153420406894833,0.015131828240074098
0,-0.0728998866830111,-0.10224427066796053,-0.00836863006163606,-0.09354576941803462,-0.0634790902430469,-0.05139643124382893,-0.09094428652883212,-0.001539779897839838,-0.12996381500207205,-0.07826109562579815
0,-0.029425102133186713,-0.11127128690568167,-0.06398879698445287,-0.05226787300304026,-0.02193483097668565,-0.07243862293573756,-0.0672266804972147,-0.029745293202926387,-0.0415033148317578,-0.0792827212966417
0,-0.006120825386056165,0.011550654564809741,-0.037986572331681775,0.01803786717648754,-0.051383773283065544,-0.0417514260061852,-0.016423083502584805,0.009084737077070535,-0.017495315897410813,0.0012860128945100747
0,0.07345747550420392,0.08705199469322507,0.038258439737549395,0.07583270650104654,0.03944897318774172,0.1068186668471453,0.10180505177349947,0.09288773552275571,0.04578678982380263,0.05794043522295619
0,-0.07104216246967263,-0.04136345155343474,0.014674371436370156,-0.030730625209217363,-0.08741220725923926,-0.030405957253162655,-0.008919563019021033,-0.007932343020204848,-0.052830344522729715,-0.07857519719972351
0,0.08084368516277543,0.09079514766839868,0.08894961399391037,0.12743059049871086,0.13675878123035481,0.05477290576210208,0.0670722898630375,0.02404302916578256,0.06794991335251482,0.10362870373406513
0,0.0929214234551836,0.06307945128759698,0.06254444280707386,0.04803186849808799,0.08965865319221877,0.1150946725357249,0.09451695092838458,0.11529756165518455,0.06776016655502215,0.09890973527899051
0,-0.011378905817990578,-0.034543282673118056,-0.10285492085274162,-0.07445714436240042,-0.061262448823014896,-0.058464640218166324,-0.09287014315649576,-0.10138793158816166,-0.1076823704504394,-0.05360075017501429
0,0.14299983750266307,0.06254410817447088,0.05938717683287794,0.10669369485633304,0.15612140838732608,0.1284155511558996,0.10877525196416223,0.034128935809256425,0.06462015453485465,0.14372080636685658
0,-0.11651281293037498,-0.1056916182052683,-0.11300066498596253,-0.0692821480482571,-0.12540962334493183,-0.055654551297134223,-0.058877016790743815,-0.07272787041538391,-0.11368607972639695,-0.048093137213038005
0,-0.06590519664388414,-0.005003672841438632,-0.02036233561166759,-0.052347112859005396,-0.02711797699639701,-0.058898981630601206,-0.011976529758117483,0.03127608686729008,-0.06785671951478131,-0.08424653407077513
0,-0.016173323853260313,-0.007341222657992057,-0.03933562375105264,0.002422775796424574,-0.06994782308805132,-0.049109050687578475,-0.09212563826375637,-0.03405201470850522,0.004809714471736936,-0.04580009456397452
0,0.15391857799372874,0.15855543887811208,0.1355443040447523,0.06964958925979216,0.10120918736652788,0.08800496612531367,0.08273638386252508,0.026609208541202158,0.10227951851541948,0.13488434435857152
0,0.132756683861869,0.05637551223058691,0.06037857547633228,0.05588480075101382,0.1326806567380479,0.10620500221489133,0.07094861577480877,0.07100879793343959,0.0714461811947226,0.10621686505944308
0,-0.12482271505149724,-0.12727329649477756,-0.02883284751455303,-0.06123550688635072,-0.08477297532977221,-0.09869143351368925,-0.11191388942300316,-0.025049233958008437,-0.07785195027680095,-0.12229502234181537
0,-0.02548676124666638,-0.04905383115736158,-0.04869394919224859,-0.00913191289988625,0.011004247320100174,0.0069091907379209136,0.023652813003723135,-0.035893293099972454,0.005743211360282498,0.026326405283114574
0,-0.1041839174817938,-0.11515843857706448,-0.05977170475914672,-0.1360295653773607,-0.15125762717787164,-0.12219034703887895,-0.11051102046767015,-0.10488988414882766,-0.04446563915192821,-0.060213574129596374
0,0.07880391696091185,0.06178100543622408,0.032792954467891246,0.08568569260660516,0.07259519783482477,0.060477150442545174,0.057752788522633124,0.042880841035341004,0.0350611708259151,0.0007567123169314812
0,0.02942526199332464,-0.059916552438397684,0.020414161208316173,0.006549600256338651,0.004440462919311409,-0.04554102851222364,0.034659475708872726,-5.2988236727092486e-05,-0.042291796643867105,0.029415899287235064
0,-0.1614321634652369,-0.18097440029481984,-0.07372532357952746,-0.10159413189748946,-0.1275711330440714,-0.1008316939790045,-0.06417032805700934,-0.06624974205071037,-0.09400074707262443,-0.09100236555237043
0,0.035338226535730155,-0.05726404544929962,0.004720872931845125,-0.021123137273710638,-0.0044653328149594105,0.009308957865718387,-0.023009431657936227,0.033904748867681994,0.0010350128295845676,0.010211656595563282
0,0.055752947999463336,0.11500871455477141,0.08094313424887802,0.1084921238831305,0.06736707439840797,0.07754333921702428,0.027327125267777495,0.05214834980847758,0.029829878404871866,0.061309823307656566
0,-0.05150918548296698,-0.12620423539613584,-0.02790629042451549,-0.08293504086868103,-0.11330233304290471,-0.02519912966412968,-0.0449430601864067,0.015739241063336955,-0.04098750890285599,-0.09086618216603995
0,-0.20066968222929185,-0.0933606711788674,-0.0700244626550151,-0.15717871318557958,-0.1568865436173985,-0.13304365972380472,-0.14776385359938324,-0.05783544213535436,-0.11509275271737414,-0.18207897094932188
0,-0.08644028367254245,-0.07557007769291041,-0.06067114455700927,-0.024942970192164942,-0.08857324645747602,0.01849985278960333,-0.07903430232144014,-0.009714536210572507,-0.011183525932624751,0.010087452795500067
0,-0.058572350371813256,-0.050349039409877956,-0.03920402546799081,-0.07321910501405064,-0.02613588322219684,-0.010824500605332516,-0.06907667120049432,-0.06249336924117363,-0.0935051565826939,-0.06827411074563162
0,-0.049348226399162545,-0.050355343675697564,-0.032138535093318245,-0.008381681706447392,-0.05541741374424918,-0.04225478137816329,0.01676722473712468,-0.026536148058050858,-0.09826967793662228,-0.05728725910226623
0,-0.15173729529865934,-0.10512528020409548,-0.005549428306913807,-0.04594445071383645,-0.1579728734573075,-0.07417525670651526,-0.0787503567417946,-0.10628543292379294,-0.10560264320093798,-0.08458278473982886
0,0.05206077656091682,0.007422404638195459,0.06424705512664337,0.0684815577367512,0.03954832002454218,0.05822320227578696,-0.01371680759625988,0.017752541987944934,0.025612748433901017,0.02926167301049873
0,-0.07247864839134296,0.009296970913274817,-0.011916984765518947,0.027313172784545692,0.00624578729195923,-0.05720217515399915,-0.030725549446775493,-0.010496895859877856,-0.07511991494869377,-0.08394389174973999
0,-0.14546996247804414,-0.0768093717598096,-0.11869883500128972,-0.050973521245213024,-0.0878865595530268,-0.06386072649795255,-0.13186306886535953,-0.08235064196959224,-0.13213013834064016,-0.10614359776397075
0,0.0036021860474732686,0.04806036000756866,0.02692260339437405,0.065124478562583,0.012661077840580985,0.06844895690230832,0.011144031186424557,0.026567155151382256,-0.008553140354788187,0.04610580537066052
0,-0.13034012860457123,-0.19893218385613964,-0.06761656533082691,-0.10746503893926539,-0.0915813061210531,-0.11489900819341899,-0.109480145711469,-0.09631561683412707,-0.1320958653289305,-0.17068143985282666
0,0.13768360684296743,0.06154065170905735,0.08564842922777442,0.05641621043257831,0.084848577652057,0.011874457168168304,0.08995794188567088,-0.02180199080735186,0.06156811675196781,0.044572379493879696
0,0.02447561162985201,0.04195552333838957,-0.0257107931909606,0.03728714910364784,-0.045933783186865064,0.05038433863030852,0.051181274345352426,0.0443544124340502,0.0281780292092023,-0.047390264696142555
0,0.04467636317359121,0.08393828550995072,0.08747033395383354,0.07760021745728662,0.09368906828352568,0.06422716140296966,0.10611936492365193,0.05933687816569727,0.06587707616683666,0.10880571244954729
0,0.23862562143339514,0.23100028969702727,0.16950378752131026,0.1855217106396516,0.2556123471397092,0.22319846725284603,0.14211029628794838,0.12457612712693283,0.1817894226030797,0.15717626838847146
0,0.001098208627729162,0.08133676940066414,0.06456649581144684,0.03850397330948405,0.028230177960065366,0.007573753483373372,0.07972342244942822,0.016930529090449148,0.0701688013175242,0.08093662494434686
0,-0.09952723092956337,-0.05485396552783044,-0.07487216428730072,-0.11683916231761697,-0.11438662848700025,-0.048409330400734564,-0.046830587983731436,-0.08590641107685966,-0.0829225089338357,-0.09216740962013313
0,-0.059832235894051414,-0.0960569639706716,-0.05415040607664213,-0.02482988646975496,-0.047906562462647524,-0.09548101078186852,0.012012355986266352,0.004459471169829175,-0.06419115802594932,-0.05314400139364228
0,-0.007023683355586782,-0.08246686109497887,-0.04695944165686788,-0.04390478387215711,-0.09739506525409732,-0.004505861681339159,-0.00019437541218081123,-0.05475441620146619,-0.06771066998726255,-0.03731747235199309
0,-0.13760873065785273,-0.12366440716018533,-0.07703586591150795,-0.12981600929038795,-0.13721591297948596,-0.0489799712816205,-0.10365195684845131,-0.10594174583526647,-0.06613189061231241,-0.096518471463656
0,-0.05321024666881931,-0.0660300521932238,0.02718063902451394,-0.06526379385949228,-0.08129400838666918,-0.06901058652748741,-0.04587582868484848,0.0070069203115963015,-0.060196206885615326,-0.07954323412947276
0,0.07012973180551953,0.04509835948102982,-0.016137772876639443,0.08842213980608696,0.11888242275863961,0.0696555747501652,0.04649807304177622,0.06830587508587029,0.005282006023466453,0.10329529520658899
0,-0.13929841764986697,-0.03369078375861807,-0.020276641303999685,-0.09989848585593127,-0.09269975538165211,-0.042049590663751614,-0.04616194488825615,-0.06152128640435084,-0.0775303173893577,-0.10865995694815556
0,0.015660761933439942,0.003444487707436697,0.0170749538118765,0.019506516809233494,-0.03161896802927172,-0.04565219307979858,-0.04373891104453932,0.009168253869143711,0.028090279065805815,0.017137122216647562
0,-0.1289723429148852,-0.13822371881187334,-0.10213355478670286,-0.13009816206511102,-0.10720512736416024,-0.142433131116722,-0.08542334002310997,-0.07836356808560156,-0.08549432925090014,-0.16085085662215678
0,-0.03907717477892376,-0.024570698132752044,0.019574594387995227,0.041710529172767845,0.02153603698726998,-0.046572341462695364,-0.04389748416700211,-0.03841504269033334,0.004452039178168054,-0.04392094219554761
0,0.004014613341873181,-0.10843809826485402,-0.010483879507135448,-0.046947565396670596,-0.018168547400185406,-0.015829098973109357,-0.009475417887178105,0.00960263946546529,-0.05910082460185731,-0.02268501188253629
0,0.0057662354224543065,0.11250272395057206,0.04044010564152481,0.05254549106032642,0.0907612466793693,0.06345711186337831,0.06133740295890682,0.05083402892076783,0.03980762267974949,-0.0073813174298893005
0,0.019146798768088214,-0.03515770258347668,0.005429504932217781,0.008324985043484239,-0.03301972973054377,0.025222174706959755,-0.029419299192028507,0.04026780315235054,-0.017638767907163653,0.01034463743672923
0,0.036519069745555806,0.03268599829532442,0.039157046737193106,0.0434949390149433,0.05836286010122116,0.02772027321711369,-0.023157368465202624,-0.021053961277076337,0.04262597146712669,0.0038991866060117944
0,0.04832844292845645,0.01786038531830629,-0.030028559042027447,0.047516503288028936,-0.02192019677875295,0.05160055520132899,0.05399758683056508,0.04772215639580354,-0.029288985567355947,-0.0010902162282611708
0,0.11024022163215842,0.09477160823956472,0.03322127022159809,0.02021811226151833,0.057540708936764856,0.05448245347562532,0.05018306433330442,0.09066909904009096,0.08466209813123177,0.07371602753689363
0,-0.0167251635292732,-0.07271686505631449,-0.04137081803359476,-0.04472685640690743,0.007896469277141613,-0.02649023837062353,-0.02755575989794752,-0.007275011573315782,-0.04855984465874813,0.009035756375069691
0,0.04963234785520034,0.045252515634612495,0.061590854966441136,0.03140017347825903,0.014433428938370017,0.02203789624174931,0.002234458054432058,0.0688610748023604,0.004457688299768758,0.07745351883021184
0,-0.01782911478470369,0.03959923234062209,-0.011238199809666132,0.05730085106703289,0.05400669687834104,0.05431382614304156,0.08547227833759245,0.03633837643964182,0.1020152125932657,0.04599315463080033
0,-0.07512825492003163,-0.035872366474235244,-0.05451241601543264,-0.07261504432302117,-0.09573798735841793,-0.12203402543196938,-0.033841405910906716,-0.03655215512253025,-0.03932488049930223,-0.08274789845590597
0,-0.05556009999345127,-0.14467522053974163,-0.05101391729543551,-0.117959430522147,-0.15455227865739748,-0.14219346608297564,-0.11456407329712893,-0.0829711117557051,-0.11684123223064027,-0.07293290346976175
0,-0.18917944498201025,-0.11479900135502646,-0.12314213646440046,-0.16762462015021198,-0.1856327158012819,-0.1596755676403826,-0.13389353410624658,-0.05652263924081044,-0.10543116468768979,-0.18995589503421337
0,-0.006437378895981512,0.060653706604881785,-0.03477836753069124,0.022863441584474807,-0.0030438990971014455,0.07145640394061688,0.0344138248044606,0.04145601890718159,0.05587590678243082,0.0620207336764057
0,0.13266504195786524,0.07735849159808893,0.07314808514382497,0.0856456612131537,0.12412833202061672,0.024149860695232138,0.10148381580014258,0.0675220210791123,0.04128385327505825,0.032578386637304974
0,-0.16368694603957193,-0.16130447908177364,-0.126374163426245,-0.1196262844541911,-0.17229671453300738,-0.10919812830224776,-0.11585098793809907,-0.11172595830173325,-0.11779871998068517,-0.15892285017281635
0,0.008238082443763133,-0.04463766607861721,-0.055286651802637705,-0.06175863932947295,-0.02109877500234486,-0.0875346556493701,-0.028932118070894155,0.002349277320215924,-0.008771220930242487,-0.06345015882894803
0,0.05579583841590583,-0.05352438512148856,-0.057824383639956074,-0.0031015598287247826,-0.03214904646000879,-0.05551279322196324,-0.05621993589081209,0.005272109228770826,0.007834024186633185,0.029510769094977237
0,0.0690080836633799,0.04955096678602912,0.022886526112949414,-0.03101149316805544,0.02370601299927372,0.04304573891836958,-0.01658345826699812,0.06763902927292705,0.04240031983131779,0.04307083373270377
0,0.12825932755381833,0.0609239424461914,0.03997297521777618,0.0433768682349204,0.12227649493070612,0.0494872324528323,0.11843678375659271,0.026225206417607887,0.06821799531857439,0.09515426490874163
0,-0.11082624139876049,-0.17493473504364704,-0.07657696922215418,-0.063793001603146,-0.1206626495691149,-0.07338444785536544,-0.04101437556030869,-0.02024551679608158,-0.02951540548043329,-0.045145638561389596
0,-0.07144308050419161,-0.07965848965071527,-0.05598780313191859,-0.10254051226683866,-0.09551639623546923,-0.12204874566765714,-0.08587607488136596,-0.0483702155476462,-0.1175358127101434,-0.09391999861388199
0,-0.040297852229966485,-0.0881222833427675,-0.048763761641998526,-0.11568711930581095,-0.09055654469632476,-0.10671403030026844,-0.11384380737393406,-0.058096074039710024,-0.035133778607504065,-0.02520123216172745
0,-0.04716507886010098,0.0055651894832842224,0.04396031041429474,0.038114720350208096,-0.08963121670921066,-0.04449452474458409,0.014115069274153633,-0.02350512171080574,-0.0026041201590675284,0.018940441676906797
0,0.04337393293572908,0.006052753793584462,0.048092382752732164,0.09204140773103164,0.09004446511385523,0.08821160101894068,0.0029341459968249745,0.09170945084700047,0.024859009943004703,0.045333498142427264
0,0.16391971998284485,0.18886593965539597,0.08366298921416689,0.15212463237990606,0.1402054981125534,0.06352046419932253,0.09453510623297594,0.0978180669562965,0.10790220709016748,0.19923360208374505
0,0.015861404282099863,0.04161141092174277,-0.04073023339849149,0.029737139867302358,-0.03554378263472976,0.05103333400050972,-0.02967565083898095,0.04719353666149978,0.025005567391452085,0.04122422915283029
0,-0.32839204275819206,-0.29452970063079154,-0.24198583350006606,-0.24118827352896197,-0.3114316141476736,-0.3192201553509609,-0.2204073696819917,-0.20755113580938866,-0.26855039534458963,-0.27847557825315267
0,0.06707193084304068,0.03412135138139467,0.0763399099458668,0.04708800252758702,0.07337632696224394,0.07935054963006383,0.021063548202376197,0.06066543660745242,0.05912605434804777,0.028355662814125666
0,0.06888463030992482,0.07258351398892142,0.0820083891276824,0.053126246274287046,0.05087074431414557,0.08514090991541742,0.0771804495495981,0.11787961976326497,0.06999556042943816,0.060285584635452215
0,0.23341168093269687,0.22160746905341452,0.0990961442149603,0.055868508441369126,0.13237175034920276,0.10319861123079105,0.07691312554632103,0.07845676821078328,0.11040603188056111,0.15212247672846652
0,-0.0689380539203119,-0.09744965276031557,-0.03551660067301976,-0.1377842554432739,-0.08450859417989567,-0.07538784580643966,-0.10672778047526212,-0.0772443829833532,-0.11269264495481385,-0.09953247424917505
0,0.04936976738777063,0.19805341403900997,0.16239741975344077,0.1227261455268482,0.06376425792050323,0.19653430180932652,0.15770237856605698,0.13103036690881711,0.15748429381896625,0.19122179788733484
0,0.20243404735665316,0.20919304589868418,0.124546345286697,0.11452411658930167,0.1684908305490024,0.1293950694104403,0.20344237453244185,0.11972679542441757,0.13702028680055253,0.1474248375142592
0,0.36032106898195654,0.37733686445418924,0.18035790030225088,0.25491022752207027,0.3527947026771836,0.271418491518824,0.24194637647290607,0.24441915331762648,0.33953828411133713,0.26310436700206813
0,-0.004758935155049309,0.0462095661674633,-0.0025602903306982602,0.022426076451359314,0.07871380087290769,0.012049234902283842,0.013208097614420386,0.04994504448505089,0.03511749220307452,0.019154048816337994
0,0.3400514257973121,0.3898261921758812,0.21598446464570198,0.23623631013297558,0.4026193414144857,0.28264244021516965,0.2014833797316698,0.23221449517593892,0.29365210532075714,0.2587398235157087
0,0.09957960662927856,0.1717208047714168,0.1601995761713914,0.1758617412509121,0.1319828681983441,0.14649614331811883,0.10184312081133019,0.1344144952289802,0.1363111218658581,0.17810801771657808
0,0.013072162072005336,-0.01532475940039097,-0.021974009415079977,0.018368428265020467,-0.015310087588102593,0.03120326691979091,-0.021507814820463742,0.011803919888746836,-0.002891000839129179,0.0339054003166869
0,0.021680863973608966,0.04062135006935108,0.003287348947842346,0.05407681902790959,0.0996692650090699,0.06614720377031158,0.010830325371518484,0.05706081427036597,0.04073443959930497,0.05080024315641203
0,-0.047508260364781243,-0.002079810742216383,0.015915384246902652,-0.0534952482451346,0.050807384429952536,-0.023170611672638914,0.01834547432841039,-0.05086148836741297,0.029157912510292344,0.03460608575508497
0,0.4087387380429023,0.46094424561763875,0.2683322230986355,0.35225298805449035,0.3948818494092242,0.30257450289934473,0.3870317759794555,0.2550923446356618,0.353660916508959,0.3417533467390853
0,-0.051758310167179515,-0.05473565500746284,-0.025640032858550283,-0.0945201260264329,-0.10250665860591601,-0.02383793371117005,-0.06881717433775286,-0.08040174986719369,-0.10974511251391181,-0.0666230000893672
0,0.07788585721571002,0.12158161371950349,0.10069086958499424,0.10240788083445591,0.08398353505328475,0.04378970352302081,0.08897310362080238,0.05694530388675531,0.024398695389040288,0.04360435243739357
0,0.0543135249372235,0.10746510456906394,-0.0014476843539520238,0.06811299446860844,0.04126653733936744,0.005482062597808881,0.044252402600180304,0.021395642553578904,0.0036314531194244115,0.03292132675713485
0,-0.0432621141667223,-0.11232783013836443,-0.0847730698948263,-0.03090199311022955,-0.03186513108183513,-0.013284008914136733,-0.061987591305966566,-0.04854384417120183,-0.0407758365861463,-0.13352880187384863
0,-0.02713616110991907,-0.06123560694038425,0.0008796898876710345,-0.030813196661243738,-0.07227327880608257,0.005503036782036623,0.004644468044103542,-0.01735012862673432,-0.036067859046219716,-0.05016147785978409
0,0.044029817483746035,0.05695052685843445,0.10240178106521451,0.043518634569875606,0.09373444593801653,0.15248906244036048,0.15139707109149556,0.12515528809842652,0.13433516846246632,0.11970386972222029
0,0.11902677983160526,0.12398754266351573,0.028450717382101556,0.10226325667635809,0.13953769840566754,0.1315974499098761,0.11424614572985033,0.007735945003907163,0.05435164733861227,0.056071305032108644
0,-0.017442912837619146,-0.07319949328748054,-0.014918738588421781,0.02972800560694515,0.014614630800043969,-0.04256798148947478,-0.048274942104300146,0.008503010532333839,-0.050614209298441334,0.008820903967763763
0,0.06950335756253084,0.09950159532765131,0.06663700061200596,0.07618789207438324,0.08870200848676253,0.09988284721866597,0.041766148330732604,0.06202159083753789,0.07715750944001358,0.0675766742926249
0,-0.0037400656933727653,0.05352742917526354,-0.01691364345394662,0.02862966672318033,-0.01618568159797773,-0.0012580700700659932,0.04201926050292416,-0.004635733859218088,0.017710271609540643,0.03229951924423702
0,0.16797402520797947,0.14771991800211867,0.15712927198618037,0.1038973616007926,0.09547878107332121,0.12516814586561786,0.07107509483549546,0.11794800209374988,0.1447216536254932,0.12892209791349343
0,0.14612199800951,0.20326791497751664,0.13863534790935161,0.1290177530252045,0.19011541048005715,0.19459465839471726,0.14316584527135595,0.08390790600133413,0.1882662908060859,0.2308259209095596
0,-0.07093230243453512,-0.043029018071434944,-0.01842147633918575,-0.08468533526199717,-0.041114232808026695,-0.09937035199614855,-0.011921557547462215,-0.034388769078678015,-0.07898912191887542,-0.03391247603698958
0,-0.0908567350433692,-0.07388538397467957,-0.024905901995218194,-0.06277989402739785,0.0014254535545108174,-0.030478674292345496,-0.01600030909616952,-0.02773916942861067,-0.0011835055697281666,-0.05286727788339784
0,-0.047097001357726286,-0.034929154731274795,0.025265147901087276,0.029233224678175032,-0.014412460252326844,-0.017551493077088566,-0.04257821142366188,0.01174830325482855,0.03780669847599566,-0.03152474657623517
0,0.08728839277076061,0.05258487774003686,0.08402164769212897,0.09247451460518168,0.09087446426072464,0.017715131234768085,0.07177331808580358,0.08227388030651989,0.013714238062095622,0.04368515286019235
0,-0.10836975368480156,-0.19684658029852095,-0.060247192630827846,-0.15357670905172077,-0.13994742413285438,-0.1735698219820044,-0.07139964525547422,-0.13289568397458773,-0.15999064586252348,-0.08497516572977853
0,0.03928758607821935,0.002777704433829953,-0.05522127891119311,0.06312075165119152,0.029013826211324856,-0.04730990790998666,-5.446373894559223e-05,0.01380803348678675,-0.0036264235641930735,0.027442696962579203
0,0.032279796131610666,0.07403849500884684,0.0826757819758155,0.06311092173864685,0.004268708457950461,0.08403819682312848,0.043698203055088425,0.06003535691194038,0.06140412459599233,0.057550404497812915
0,0.08606474881437176,0.1423724386363933,0.07159390638285676,0.036797865025421,0.09543511950852997,0.039076996281607705,0.13986406820171216,0.08182743110472014,0.09267863324568092,0.11471220890048624
0,-0.024204608451672698,-0.1259862121652877,-0.05364974054316932,-0.04257980031468519,-0.12996391483107045,-0.03008346889838836,-0.11219523499324373,-0.032632355536776576,-0.043199874601576496,-0.03334897996017316
0,-0.07081982826404218,-0.16483576987755272,-0.08388323297593081,-0.12639001379236764,-0.14778292224470277,-0.14443562553082986,-0.09082868080387943,-0.05442567880407555,-0.1235144969140002,-0.09444758355485607
0,0.010296414293486137,-0.015467963973271909,-0.03462341589281314,-0.02410146126083862,-0.041121560246121916,-0.02846998660277769,-0.0370146824447862,-0.0540534857937253,-0.066322277833133,-0.016835315045372924
0,0.002001616108562178,0.017079306875813802,0.04196822824152611,0.05866996654854986,0.02328243005241496,0.06729829242255446,0.013099267446659879,-0.0013062254509070424,0.04825301657448616,0.05376183011553011
0,-0.03207610025809502,-0.012329721293570472,-0.01703205418419406,-0.037347498340929666,0.03946853080731483,0.02822798398881867,-0.023905284078173092,0.0399927955180688,0.02442789105049428,0.029644395650202063
0,0.17007456385630781,0.16699556482643793,0.13345175139552934,0.18165850543644924,0.22067766468996589,0.17423181346899316,0.2001856224701408,0.11164154456342155,0.16637668418690896,0.1710269697683331
0,0.13978522089695797,0.12979889793372124,0.08962016181190335,0.10194526435562826,0.11603792661201574,0.16690343963893467,0.1402826508582483,0.057170690682472734,0.07986179317183656,0.0778793879874685
0,-0.08266642062910393,-0.06996910638465485,-0.12213354069231933,-0.044611628778616075,-0.12896091667873752,-0.10795302139014594,-0.14334382328150191,-0.13302087965213433,-0.07539224532059037,-0.1435611328723185
0,-0.0346569515430442,-0.12494342244131028,-0.08237974085293735,-0.050047838128285504,-0.07455980656378712,-0.16409514658790925,-0.01963759243131649,-0.03284328171875076,-0.0922426751450247,-0.08234461231771055
0,-0.20462185417840173,-0.2545239659804039,-0.12825656572561164,-0.1529512346832702,-0.19327862797695405,-0.1502971886528156,-0.16203218774397726,-0.09293902849073836,-0.17443227945208636,-0.1743714047022416
0,0.06309193890738297,-0.03574068797342938,-0.01847107207750453,0.030817521122700097,0.034921833838442704,-0.026130121016214106,-0.03025091902274942,-0.0009057655508224937,0.02943190757862327,-0.006377875075039201
0,0.04864328497537487,0.05174601947791867,-0.014657128673871863,0.02336562252942272,0.066573873800779,0.0026114670209548265,0.015793673337961715,0.020751008978168194,-0.006318026372823604,0.07243822954581855
0,0.010510578154652523,0.0015147350941165211,-0.011537356754979348,0.018303908209960376,-0.015859444771760507,-0.005996870419173406,0.012248784288964847,-0.013355455847453403,-0.04973897491803924,-0.025884920631318014
0,-0.057351603693786675,-0.06820499929335527,0.02516540316478419,-0.013929612465849733,-0.020918470171220102,0.03332095870713882,-0.03443189326773058,-0.04223703388134169,-0.020404896081074184,-0.07091812559394248
0,-0.03749893516224993,-0.06297951276375802,-0.010445134134710458,-0.0039001995674419676,-0.04182575862000179,-0.04091009667515903,-0.04400616899146656,-0.02771778140881208,-0.02294853443947782,-0.07101083748121793
0,-0.013923899423752405,-0.04116670140645326,-0.07179449298774924,-0.07270758837558693,-0.040823396174439835,-0.05862067286045583,-0.09339386197995249,-0.03420739701803273,-0.041657574317856244,-0.07878247704936352
0,0.09322509865413561,0.009981787366334854,0.03729792130799096,0.02997510123166359,0.06431506762195147,0.043940064481571534,0.07668598483918737,0.038391128734766015,0.04771294337039725,0.021846945165033296
0,0.044998851540505286,-0.013760270372698594,0.06183616166331083,0.06985977595149903,0.06187284474369267,0.06464532931250519,-0.01532947611850377,0.004682435021609324,0.042073450316167986,0.09150279648302577
0,0.06750792779495092,0.07034832792143594,0.001647378380113975,0.07926454137196011,0.046728655029043845,0.04370092630949836,0.0750750523491715,0.05070641969648264,0.10219685225069856,0.06225186633607223
0,-0.08110722876568137,-0.1745183664108426,-0.1184645873205094,-0.0758296572398956,-0.07667723293431487,-0.08394003246580437,-0.09855288129815146,-0.027062941974252696,-0.09171871967471061,-0.05272603850935016
0,0.09366763293569767,0.011495366610121101,0.052634416301902576,-0.022370933433070717,-0.005099058131305679,0.0654885402998651,-0.008592786306301317,0.043012511832871865,0.04284189732248105,0.06918673928585281
0,-0.11576755496890889,-0.0492061720852091,-0.04379272109788836,-0.057376483591270545,-0.06405614029341387,-0.12089412405467227,-0.05383455928372685,-0.08017651875755678,-0.0874529786773164,-0.07578345808892907
0,-0.027153563840752157,0.04543515714748039,0.07054284802930995,0.018798604659335385,0.017631943673399375,-0.009637088784438872,0.055712676748139116,0.053376238237810084,0.008844239752342048,-0.045441342505443474
0,0.031374449907816584,0.020717708268059416,0.030097349612834,0.037916299613568585,0.06857004401326497,0.03696278499773936,0.045851319418327596,0.05995062957694345,0.05988251917180699,0.009618198727683719
0,-0.07141282005241825,-0.09933089765936948,-0.05948299281409844,-0.0321661177888584,-0.10218968289860318,-0.09185592425541901,0.0032204465491035617,-0.0439057880311262,-0.08610070470684356,-0.06757900535842358
0,0.0013984890264659047,-0.05308147290365432,-0.01845332113994362,-0.06566704257351427,-0.07418521891680123,-0.029971699982012757,-0.0725831630427633,-0.04455074037041036,-0.013873004202190866,-0.031198023165071843
0,0.024140220775344914,0.019972285579985267,0.07332443267713708,0.02795897335619253,0.10106296355608085,0.01180426183211502,0.04459283974950314,0.02690796647063068,0.04546530677302105,0.04555613844523513
0,0.033686663638230446,0.014132565845221094,0.06347252214056721,0.04311587280480537,0.03108116838131642,0.042681089939151436,0.03282730110827791,-0.0012319280088531484,0.0896952838779,-0.010468004256603831
0,0.06273241008281201,0.10134473959379693,0.06773753366916542,0.003624822640714795,0.08612280401326566,0.052332332501563175,0.05069656195715475,0.0009893583807257706,0.07728766143296836,0.09105653124895208
0,-0.012016076024648213,0.009737108118201854,-0.009624408745887342,0.05990225310325832,-0.001936872105483387,0.044089331091175264,0.06384222570238329,0.040302717476473515,0.006645483143982702,-0.022143935200162453
0,-0.04313995152474347,0.022875849186405783,-0.02618124047833975,-0.05050569088705552,-0.004439558774568377,-0.036542299220515134,-0.02347338891125259,-0.0497134062406469,0.053610204437570384,0.030380163813198444
0,0.0727124116455365,0.08879795255347776,0.017030570741728986,0.04104380908116986,0.023574026928620147,0.03625761371684237,0.0149815754589878,0.011947992379387415,0.03162730741480271,0.0521577815766799
0,0.06716982969955393,0.06968266263153665,-0.008461330946178739,0.04434266081442049,0.1366507429128466,0.014897095430423847,-0.006824543045161713,-0.01187381194317552,0.04379393799231017,0.029386210348111397
0,0.002593724253068252,-0.027882804620889906,-0.06354474457550029,-0.011006676347249732,-0.025506773319756853,0.012078388774621756,0.015639557418323805,-0.04151549299864167,0.020018814007067506,-0.04776573181426431
0,-0.040017791986162024,-0.011321295220039372,-0.07172621529311518,-0.01281880611889505,-0.03983376294547122,-0.024450440579844433,-0.03777336275388763,-0.06704354791913739,-0.10675531425429897,-0.08737246820774676
0,-0.043608885288681634,0.06530564630974275,0.00682012806833668,-0.04409855596514159,-0.04052045737314289,0.030970451027226228,-0.01103481137434957,-0.01226978774744469,0.00012581835942972658,0.004318153639262056
0,0.06662953194404655,0.014927654744633414,-0.01814802860810173,-0.04309031968226453,0.0773736834448296,0.03396662164117137,-0.026718262148964226,0.06086421723101511,0.021870849974915202,0.005775822308693026
0,-0.03438648250290163,-0.0028183160463949434,0.03990557090086934,0.04235321477956428,0.016003215939105208,0.05987923443100818,0.06252256268184297,0.060416614947377614,-0.004665866797533886,0.0021770511091979794
0,-0.0529263500451934,-0.11937727787402783,-0.05011257867909996,-0.06834705022333194,-0.12072794046523058,0.00480663210743794,-0.07149977608978458,-0.026092480667606797,0.016656130176938507,-0.05457235531888872
0,-0.04226187935044942,-0.08685960920633269,-0.05055627695533447,-0.02883324931246302,-0.08314717392876113,-0.10876168773853113,-0.050159245980004416,-0.04720266499864093,-0.06701337283257469,-0.06576259160942335
0,0.04116316069018745,-0.024463721832165376,-0.0015069690784760136,-0.016272325444900166,0.04612144561350851,-0.019158010937222886,0.023304629809756876,-0.024596234115219662,-0.02000085319849883,0.023022430620811163
0,0.009167050706035,0.0665079730045421,-0.012096039226925726,0.04430935394442059,-0.027545538953496825,0.05356858137217337,0.021905829161547066,0.010165626385492222,0.09187187776920719,0.019509938339612412
0,-0.14748064130232624,-0.08051961273684308,-0.09027907726483879,-0.11174832561136815,-0.08984832733928468,-0.14455484718272701,-0.13689695379812614,-0.10960217147254607,-0.11710356250217634,-0.1357548842915544
0,0.12740794792452093,0.1516045261316504,0.05262754372772921,0.12358338005580487,0.20196014912327506,0.07332404824501824,0.14220904573772108,0.07212749932488106,0.13348773896597613,0.12772447049439872
0,0.07022320614286516,0.03122304892820654,0.03800826650695099,-0.002359700574633376,0.07705731747609824,0.029008767090673782,0.007493852682704309,0.005253734753541507,0.008668337814821174,0.1132745785635326
0,0.07256594121989772,0.07049432515915587,-0.020087452477115252,0.00634218322153689,-0.02181694198523511,-0.05137319302261778,-0.013331716613231175,-0.03835496496386506,-0.0500561167199125,-0.08963071907003155
0,-0.16062400113775632,-0.16536693742562258,-0.1261663314015158,-0.09941665302474849,-0.17884742039543564,-0.1723533327744135,-0.13142352087620188,-0.14600320926356083,-0.13739531024849883,-0.12614013363504567
0,0.11753058915260711,0.10282551440682192,0.09913258753147551,0.13977788219380527,0.12653256521699932,0.0898928660272502,0.10963254662106259,0.1097445926233834,0.11431673570082283,0.09003557720892515
0,0.07861763576097806,0.10247038196391123,0.04910735680617637,0.14027152477680752,0.06369662157820496,0.13059051855640644,0.14260514925125756,0.11898404578039931,0.05508798288489617,0.12432279445206719
0,0.03992905360076821,0.1395767068600105,0.04483552347355016,0.07638266536989634,0.0867567019591767,0.12135185848537011,0.12994445677555372,0.09570933985810406,0.051897140208439996,0.1390161040318971
0,-0.010400628336385559,-0.0028550494107241332,-0.045909899721863094,0.005875852508131191,-0.011418562319187866,-0.05255807816815395,-0.07195841982011653,-0.008073738189797725,0.0009132004912138869,-0.04072970671829924
0,0.10828064002733045,0.12855529852965375,0.0552707417466414,0.11444554712763733,0.21405024896977198,0.1075780529293953,0.1523698219641966,0.07356991560630124,0.10945223105374095,0.1991136970887523
0,0.014032002650598592,0.13675374459051592,0.08247373007861059,0.05397000875964106,0.10521153146848773,0.05470227767921223,0.08592235809734974,0.04758906006556921,0.11195150195721594,0.10499675692575912
0,-0.06700676236003968,-0.026599449026249045,-0.021261633707042617,-0.0038442393834318,-0.1092421439828365,-0.023819310437657996,-0.06375488143113028,-0.040867901613600675,-0.03839925904291262,-0.04296741601090979
0,-0.04933805046968192,-0.07175761281397308,-0.056261190762384866,-0.018941659969012745,-0.03562034424182098,-0.02002157186823245,0.030126748821461852,0.005624823244798413,-0.020006312309936887,-0.026651215279610074
0,0.06606758850000469,0.05931871148246218,0.013768646163731335,0.03160366790172036,0.04446375174749869,-0.032577514450120124,0.018510771131273585,0.05373937816244728,-0.01725260355158225,-0.02746442679584065
0,0.0032328788006922697,-0.06024794677911033,-0.023701059830285115,-0.024126445492959264,-0.10418051662125946,-0.06327481003167455,-0.050554440913071215,0.021588288983127996,0.012484855941552004,-0.06756469105570284
0,-0.03591299710009198,-0.030097029322363866,-0.0024415168339634663,0.015251191616829031,0.003200531967833368,-0.006413422640039535,-0.0008340659095041699,-0.03545344975790844,-0.01889423902157283,-0.0038556175143904647
0,-0.038857459695339894,-0.027844900504680203,0.012550069965270463,-0.03553138614878217,-0.05424052078351039,-0.05190812906313687,0.01757071784759032,0.025777375826773457,-0.009462215441216617,-0.07252902341094207
0,-0.05967173908225287,-0.12019632260797385,-0.015603254379975512,-0.04646548316148341,-0.10871048540765263,-0.061785945324270085,-0.024256576926067017,-0.04808667153643111,-0.05655570304720358,-0.011211352088794356
0,-0.13810369621291163,-0.1813885536541579,-0.10313449203357561,-0.18657162853028092,-0.18347574095613994,-0.15076912350959704,-0.15671411538575244,-0.05017675759391981,-0.11977134274871293,-0.16313647881096904
0,-0.0010691115257910843,-0.080037268766589,-0.04615129335062287,-0.0507357394964887,0.004700468051758447,-0.03702231391856205,0.0016980970927502324,-0.002622886794465479,-0.05828090290375868,-0.03861156806492775
0,-0.09747183807040669,-0.06667442140954048,-0.051450664460016296,-0.045133121469206706,-0.02772284566023153,-0.03230758791227394,-0.020261094225853298,-0.08338688998146664,-0.07255604078841316,-0.043379691160276596
0,-0.18876188345178566,-0.2403553627164426,-0.1387193866224201,-0.15432464186969308,-0.1852595562527434,-0.17025715581477438,-0.12962340726738045,-0.136417214622419,-0.16594734691188762,-0.1293772227100016
0,-0.005760845115486487,0.002151957694000332,0.025355712327816058,0.007613528978103189,-0.0732744524375231,-0.021707381405358103,0.003906840391856753,-0.0430721012954695,-0.022644315010048887,-0.016561039619190265
0,0.12547679043151655,0.10889557098527608,0.09699599607049461,0.08206242330232913,0.10134290336906975,0.13852982217391274,0.11985577345993895,0.042284902579873454,0.12735058587603376,0.08798824425857796
0,0.059802836265675896,0.012038981533478243,0.0358692078348684,0.09438085804201651,0.038723296077482976,0.04178216930246691,0.049414355404384255,-0.018295247451670212,0.0036091648683573927,0.046582854517666944
0,-0.07534440805016887,0.008464939258420639,-0.05167379408478433,-0.032108799185875773,-0.07169445304471579,-0.06576931966301953,-0.052629995949322564,-0.05133247643340813,0.00449932347632698,-0.08679316535990994
0,0.13432643724508098,0.02948062118438751,0.042318042489465614,0.0314941254518655,0.06565351312563299,-0.0012960635840038532,0.042239125432192465,0.07332452928467939,0.08225834908425507,0.08529024615977081
0,-0.12246905469997157,-0.07057749520136637,-0.05797598920583818,-0.059160165323162976,-0.020559260353990902,-0.09085651259980543,-0.021720462576052917,-0.048768461393821134,-0.026704870597713024,-0.010581966916216887
0,0.04239903154891398,0.06830059204082391,-0.0021837723744233695,0.07904185018519103,0.08202851977932127,0.03081060033894449,0.09818321916924856,0.06837751312628368,0.017480100560888737,0.09095290526203101
0,-0.011742450764711016,-0.010775662018724964,-0.03976922827438799,-0.03598649363237697,0.039106127849545584,0.03333254361420591,-0.0336192146234479,0.029114776644150506,-0.03324456372170443,0.05110772235792131
0,-0.02740156405488938,-0.08190517467188592,-0.09620152455351635,-0.07060364103292738,-0.03766576400890403,-0.040746741117367986,-0.10620616932274829,-0.04411935664284118,-0.11456735176974098,-0.08213816906375827
0,-0.07304057305127738,-0.12165435351622168,-0.09261542154204135,-0.1261371425222833,-0.10384742386118095,-0.0687919881135559,-0.08859872940774746,-0.09482967107520913,-0.06994040603097561,-0.03941353086551909
0,-0.06154032845201321,-0.06869162117792835,-0.04664884534233717,-0.08269822322562988,-0.07669812183701497,-0.06425708583282981,-0.026969945172551774,-0.08908310569653939,-0.1060958618204276,-0.037398084798990136
0,-0.1668432336567215,-0.19568265612796168,-0.13917989572280007,-0.2119926749889449,-0.20962779488218503,-0.13349648653944793,-0.16274584124981087,-0.08475906191704047,-0.14068286092412374,-0.14674030252033768
0,-0.040259066470152566,-0.025581208614544382,-0.08467432335312339,-0.06213391904061505,-0.11923256783121944,-0.052901572659329085,-0.07668654088415193,-0.08373576048723214,-0.062112874683812776,-0.10065168335045997
0,0.07251872635838832,0.04428563224728865,0.014240723537338035,0.022174715921518196,0.09972757621663314,-0.012387817175596222,0.03327086527438167,-0.015071721201569896,0.02113026812065399,0.04305780667452135
0,-0.09888485248213362,-0.10434248089734206,-0.019989062526849646,-0.11651446757348922,-0.05578745590561509,-0.040483408908126205,-0.13031033201805867,-0.10837045235289107,-0.08961561720362655,-0.040373156187974456
0,-0.014107906909299417,0.061069390035833254,0.058438870352268045,-0.017165280169998156,0.04122207502707667,0.018426673979073493,0.027039661391051604,0.044272012961350145,0.0011844766111713796,-0.017974695341938293
0,-0.031629114533513275,0.025847445604076036,-0.035250880257514515,-0.041387006900305924,0.011800690966264772,0.030356445281420702,0.03309761488117265,-0.00128797766766083,-0.0052090740009621515,0.026794209363639243
0,0.03741008881495902,0.07672893126226644,0.06322057714584849,0.1030451316348247,0.09666487256489885,0.09110483957534382,0.11953297349415501,0.029556649363416964,0.041552041989127465,0.1172399575770811
0,-0.05094437526533999,-0.10930618049365966,-0.11311499124582669,-0.08500551831061823,-0.05598263318244741,-0.0871584587187918,-0.07760309770506887,-0.10597772550332811,-0.0664113035664158,-0.060847474821084706
0,-0.00949536894843084,-0.011803004124128613,-0.0061905928843955715,-0.06201515289764356,0.03161964135927452,-0.05196996475115788,-0.035303759833036,-0.06243119223617453,-0.063130795976997,-0.04916615670807006
0,-0.001369996343095727,-0.009870759834512846,-0.028714591645701608,0.010139779446938724,-0.0828063460158083,0.006102824393291916,-0.07557943790406878,-0.01651938858734771,0.011563387832328818,-0.05873221719710428
0,0.1082886638996087,0.015783720169391658,0.0539161753785327,0.04844045943023799,0.042554559188184536,0.06841995096657989,0.005653496384661796,0.11038743727319787,0.06839311330500703,0.055553787245268584
0,-0.005216570581217523,-0.003080257557385205,0.03050559217439116,0.017529168155060882,0.06400074181252616,-0.005449564903634429,0.046395447354927837,-0.031754747618078484,0.013828585731288217,0.03523082758429491
0,-0.02988641542706033,-0.020850611415112456,-0.0603394102723006,0.006481360392686259,-0.07230805314069276,-0.055632601139557994,-0.031174282772304676,-0.05408154042757604,-0.047602118219318035,-0.07784970311025768
0,-0.11643726031339936,-0.05845832974027527,-0.09379261137975736,-0.03763944512445975,-0.08922079361112739,-0.048372393755271255,-0.026941290481820663,-0.05127314352884263,-0.0802919408046024,-0.0977045738700341
0,0.08817947146145667,0.1613556426137119,0.03840093170684907,0.11805974918699817,0.07545122461210027,0.13328538570565604,0.11295161215512821,0.12142417387205523,0.0893306594929671,0.08215644597048824
0,0.05737459553557887,0.06743874074625648,0.06956567265338513,0.04942510580782946,0.05154349316590941,0.10504573290212976,0.1278301329214338,0.01735184578611111,0.08215393277071437,0.08126024903439547
0,0.028306401214056493,0.055774186314384785,0.0069471688499906994,0.024311670704498616,-0.0457233450688706,0.01253446715310722,-0.028186391956568968,0.016162084262005705,0.05031128071350761,0.01748181179927786
0,0.32389001421012414,0.2978628694839977,0.1560127454423949,0.19416179769128147,0.37239366095322834,0.26296043922517853,0.1975259323056932,0.20316512172257484,0.25130837542551676,0.2275858185674394
0,0.20321352175261162,0.1937522540060292,0.14391950296830777,0.19243681529262052,0.2148298028389734,0.23363618343814765,0.18636105599920816,0.1312919844287882,0.17182651512660196,0.20161115038380234
0,0.11760741885674736,0.0984986828964022,0.10161272865012447,0.1098680638683981,0.11295383416897357,0.1433299160187305,0.08612360132402817,0.018355894574353784,0.062272038171893064,0.10500660694565292
0,-0.009408265671471926,-0.030585996188087675,-0.023475567596791473,-0.05250857337360188,0.02946959669319017,0.03701577185020566,-0.006931824857628619,0.024395772742717987,0.002038811595904109,-0.02962342185734633
0,-0.02995410789971317,-0.033356092598318544,-0.050478565077875244,-0.029255720928481752,-0.02788791386981907,-0.03266333695767426,-0.0011823434506505713,-0.053989413374562846,-0.0050898115416201165,-0.039131510114069616
0,-0.03225717179451509,-0.03901112165014437,-0.037439058161250295,-0.04542413793435523,-0.03933140736422309,-0.0692357069982405,-0.06042818203548097,-0.022842816563381066,-0.042111871437076516,-0.03585078168948008
0,-0.02417201150892204,0.0341512324641099,-0.004562949217939613,0.054855330014831775,0.003024367671291359,-0.04559250282401675,-0.052122707762706416,-0.016930209649994626,0.02130836947829269,-0.05408707703323504
0,-0.00815051151142935,0.018008517762504162,0.012153280553334728,-0.0036360924291507254,-0.0409006709782765,-0.025996732951827455,0.013338669116660406,0.014420819548349008,-0.06031618725839512,-0.04166516914784563
0,0.010318148993066763,0.04127812795726045,0.02893497647871742,0.00924071212395323,0.08619846711438357,0.027039308263411877,-0.037391787882676004,0.03259418720483295,0.0083740570423419,0.01308718176825583
0,0.05590953011673029,0.04423184593299062,0.0551064461932357,0.03464218317445183,0.0017655327084881087,0.016169945375722323,0.016421780627058902,0.02370791324209085,-0.019816427458965204,0.0314225458899716
0,-0.02081255364484955,0.057225930787469195,-0.03292831859808363,0.004708493946118558,-0.021465068978242175,-0.015299314828825338,0.02384863664339465,0.026629850374362624,-0.005872204398452608,0.00390995435928896
0,0.042229044482772086,-0.00712149843692884,-0.02537561243212727,0.0014728741836353575,0.03214738228224844,0.0726101095097392,0.0791151990185519,0.04449080398770912,0.03652242006680001,0.003132584846914943
0,0.10639551901068033,0.02831094259438551,0.050654507246574304,0.07803759924143645,0.05016931222974686,0.05391885573425183,0.02213027915651618,0.07757957292769056,0.04207975760537152,0.0832815248449424
0,-0.07679554749775284,-0.11436659999778762,-0.10548933299928492,-0.0362409268666301,-0.08923871243259768,-0.11638840235742398,-0.037716808497639066,-0.04511065663813549,-0.08950274498615657,-0.07906182599566557
0,0.1493646910699168,0.11558539536033187,0.06579628521621052,0.06521631065825888,0.19545094381426206,0.11772364356171774,0.06920994718395844,0.09648062181061319,0.09010572535827617,0.14081822572978214
0,0.07643151820963073,0.1205322771271192,0.1008964046364868,0.1455470901255391,0.13480354124971772,0.14502303280197343,0.08056388364802228,0.13675569746745894,0.11606997790999068,0.07806202682941649
0,0.0059564927028007315,0.05468479187445828,0.024138809390637155,0.010757010671725449,-0.003683345086957999,-0.0315457733874235,0.04476046371843379,0.055645652136378655,-0.03051214900177526,-0.035591637874694874
0,0.03355235003350117,-0.00878622220390108,-0.039619144575247005,-0.02203000915937909,-0.01753375036093819,-0.02046154479082025,-0.03946947344826443,-0.002528629835880408,0.013270832133238868,-0.03251175114936138
0,0.044089228855751394,-0.018946774845530562,0.008005413896507064,-0.011037828161639115,-4.1060100809623165e-05,0.03309501541014184,-0.019851266379257188,0.007400222249271913,-0.02157325127012701,-0.026369882221960097
0,0.13268482026239553,0.15937771593477995,0.08641956375613283,0.15143096481388568,0.1027015977881952,0.10363733472032811,0.14103197180102006,0.11551225772672467,0.07011114995515998,0.14367484605318634
0,0.07063265726519635,0.08209954454448852,-0.015540540342663082,0.07588525469015948,-0.004691897941753789,0.07337932418838942,0.0009263603733752726,-0.005535402564519412,0.05969294977940135,0.04277664949454475
0,-0.017978903458024435,0.006293733579021755,-0.03566087865632198,-0.026207875479069408,-0.010751623424996403,0.03345001167578859,-0.019769852908007722,-0.040925128731585284,-0.044576798687119085,-0.038935479542416676
0,-0.2417458901745793,-0.2170709751483683,-0.14589429623853184,-0.2372912270958239,-0.23177305654304228,-0.15819659369825562,-0.22145450435671926,-0.15732399820043458,-0.1604095756831335,-0.2491904470642797
0,-0.09865687915240255,-0.07981630564884808,-0.0837273020516845,-0.04019429935302183,-0.09202816634952533,-0.09182841521980734,-0.10369393089638974,-0.023719903291949344,-0.07967104315406097,-0.08071758484094024
0,-0.12175395726983215,-0.09919743542891103,-0.07902643726757619,-0.055155089501677246,-0.14972692200082952,-0.13045917478960534,-0.041475828278026323,-0.08273718981479285,-0.056719768396043146,-0.12350362407467101
0,-0.18343609439100636,-0.12405147980725276,-0.12863991712211015,-0.10907543274568077,-0.20377928237329768,-0.12207177164278504,-0.08476681687918824,-0.09835299616137642,-0.10627107670737017,-0.11963005399402922
0,0.1107678556822533,0.13523687637656415,0.07051829458138957,0.07036306429049688,0.041259066869568206,0.09632775565786872,0.0695435077688224,0.037709520586909004,0.11537985022131653,0.053311999677837854
0,0.06812860228997324,0.06978528811382398,0.07032476642038357,0.03582168441789683,0.06584161745875117,0.08240608115885979,0.07152215199983356,0.05009131338988018,0.04756566745584396,0.0005392944534939031
0,0.111443256650306,0.07186641060895965,0.0899552478565802,0.043389232900201864,0.138102560796537,0.07542947523565321,0.029380039154190945,0.14325565083578612,0.05613741830941029,0.044139464698435035
0,-0.11138523868382139,-0.1403533042172539,-0.1282735810102793,-0.08916635555045888,-0.07966913179490741,-0.1385275927816391,-0.11362020701380335,-0.05546290132756041,-0.12728178058834289,-0.1136338839594884
0,0.023705242150777107,-0.046000798580415135,0.007179055898976161,0.029864828633941465,0.008759938703213739,-0.03150069878467562,-0.03840079933327786,0.0014651112254167498,-0.03126060810562714,-0.03863985576374195
0,-0.0013290445222726612,-0.03400341656383214,0.018550819847678413,-0.012967216809277708,-0.002383612135476795,-0.015456042032662726,0.02937238966893993,-0.033552778409075626,-0.04428874620481003,0.01760323371787427
0,-0.048055572820026295,-0.07945688291681613,-0.046260742439709734,-0.07177645814007236,0.004206942369824862,-0.018594703382368565,-0.08217378999865863,-0.009589708682425757,-0.0703585780804063,-0.08928878419707766
0,-0.010271111692586885,-0.04773529564775304,0.01134657939854098,0.023812738776500243,-0.018654573598307966,-0.04402144770431802,0.062390569756647675,-0.02697133733718425,-0.0015471315570784981,0.024261755953070542
0,-0.05821036234530677,-0.10782307642031924,-0.07755574208660874,-0.0682012359183012,-0.14349738318575092,-0.056335164693842046,-0.13473758787758594,-0.05680815536769739,-0.14468923687118782,-0.09720609492937791
0,0.05771909398936353,0.13234586756237487,-0.0017776315797842983,0.029880411399643512,0.008607555311694375,-0.012350995827361794,0.06272760124533959,0.03495136126921378,0.0283946761497297,0.07342687466940001
0,-0.11250930860129607,-0.06758077819819786,-0.07345724856453752,-0.08636000680644111,-0.10829916967286661,-0.060490499374683114,-0.0973252500069091,-0.06019460929709068,-0.05564954188489266,-0.08459161424651505
0,-0.021053179299104406,-0.18314434358772883,-0.028267778496138436,-0.058474517201619405,-0.027416484881151962,-0.07311480297266792,-0.0994215016721785,-0.030078508571185006,-0.12119360376366768,-0.09200761093092381
0,-0.02630689577735103,-0.02183533465701355,0.0038752644198261237,0.009385978432376926,-0.0008455046662752386,-0.011040173833790667,0.011302770366980854,-0.06151551920765615,-0.007650202006695127,-0.07908843549452757
0,0.13201352268421784,0.08680954160367339,0.014098862056575191,0.10871347488629177,0.12774113097483258,0.020724916963850346,0.0879868470568897,0.031184211959376217,0.11830604312636948,0.06600325473820719
0,0.01947313675322238,-0.04336004684493723,-0.02406545822066222,-0.03211854549652231,0.04904801283171168,-0.005684431950832586,-0.00884482166663284,-0.02015168883820737,-0.041105627568421906,-0.04978797873317805
0,-0.05648415149116576,-0.09841324044460367,-0.09344903734467726,-0.030818648580557932,-0.06420290317570505,-0.057715810192796556,-0.026904756517341533,-0.06697353636111802,-0.10400075513439136,-0.09459318158788568
0,-0.055178231892940285,-0.07066870174769081,-0.12893095182350786,-0.10790266962120201,-0.11169327345037842,-0.06810528816964806,-0.09153857935360771,-0.07106801028112693,-0.07338531777234243,-0.09411400712130613
0,0.11356451566178544,0.0017847280196142043,0.02236644404525532,0.10068266216633986,0.09774539085883922,0.030455167048225172,0.0017176968893788788,0.0745489114093375,0.07402328197693152,0.038562872459102275
0,-0.024854100972202815,0.04319401679780698,-0.01925020846950588,0.009971614152669365,-0.04402745897578228,-0.007441560394328627,-0.019791755742150644,0.008181917774594705,0.05845076134775444,0.013347810977866583
0,-0.17690213969598867,-0.14740397926764814,-0.11267595735141436,-0.18072393045232832,-0.18658496082331116,-0.17745818124482401,-0.1826169983549601,-0.10550666432293423,-0.1486577803675978,-0.2149712450407793
0,-0.07251127799320284,-0.08537399729119188,-0.041281458352638245,-0.08130666120050035,-0.046785254403836254,-0.05203903147061163,-0.040657451692837875,-0.0297137788233625,-0.11988093357073021,-0.0789030047201486
0,-0.12339405969237625,-0.14112777419327557,-0.10709168194987043,-0.1332673336944304,-0.06643889453970919,-0.03427747219906012,-0.019467717710986293,-0.08692970155313579,-0.04272748986874047,-0.0925294576078467
0,-0.021757212643106268,0.0443002061646522,-0.03328847086874095,0.004523017017224133,0.05547885114948448,0.04696598680340233,-0.029796030360030458,0.03351663356483505,-0.0037673859715376783,0.07722510938842937
